2942 50
， -0.087200 0.240077 -0.103703 -0.178101 0.170276 -0.031551 0.195457 -0.078943 0.005355 0.261368 -0.029365 -0.002831 0.250733 -0.116477 -0.018956 -0.145425 0.048906 0.026483 -0.105429 0.017276 -0.080342 0.021459 0.052764 -0.240160 0.058714 0.437635 0.024939 0.052913 -0.262021 0.248604 0.009616 0.056884 -0.042424 0.041667 0.002037 -0.166894 0.235876 0.100312 -0.320781 -0.217511 -0.042971 -0.119828 -0.121830 -0.168622 -0.033912 -0.070039 0.087943 -0.299242 0.095741 -0.245632
的 0.025300 0.082258 -0.066740 -0.277372 0.239227 -0.113670 -0.023987 -0.113153 0.124306 0.151676 0.041464 -0.103578 0.069474 0.092653 -0.004801 -0.279120 0.101743 0.078791 0.000509 0.081048 -0.203824 0.093967 0.129352 -0.343520 0.182561 0.472252 0.050164 0.139132 -0.188205 0.196220 -0.013367 0.078692 -0.128812 0.229305 0.021147 -0.084498 -0.027788 0.127003 -0.291154 -0.102491 -0.099110 -0.003962 -0.036973 -0.272979 -0.097770 -0.199970 0.097956 -0.369543 0.042164 -0.235744
。 0.018697 0.170028 0.020396 -0.127087 0.170769 -0.156908 0.060613 -0.015943 0.120589 0.094339 -0.027268 -0.099814 0.200373 -0.229842 0.038666 -0.193011 0.017538 0.075616 -0.078397 -0.005119 0.003831 0.034982 0.194645 -0.268104 0.040858 0.377625 -0.058842 0.079372 -0.218460 0.197005 0.000261 0.212699 -0.049287 -0.024678 0.010666 -0.232661 0.115278 0.158079 -0.518655 -0.074849 0.019386 -0.083070 -0.187921 -0.198523 -0.170319 -0.143316 0.019679 -0.408320 0.025284 -0.221862
、 0.096598 -0.401561 0.008448 -0.494023 0.308596 -0.334277 -0.231729 -0.545892 0.322379 0.234363 -0.182758 -0.122108 0.272636 0.242813 -0.043214 -0.453822 0.075543 0.244940 0.424318 0.354595 -0.154083 -0.076167 0.014914 -0.001541 0.150857 0.535202 0.129861 -0.065670 -0.049807 0.326760 0.104045 0.109080 -0.406498 0.183393 0.009074 -0.034819 -0.173024 0.180542 -0.513950 0.041001 -0.467245 0.174148 -0.149478 -0.579864 -0.337264 -0.225147 -0.148946 0.010762 0.308515 -0.031347
国 0.015354 0.437469 0.125545 -0.089516 -0.085002 0.046692 0.050470 -0.511786 0.233924 -0.025038 0.430553 -0.297724 0.180938 -0.297619 0.140700 -0.164827 -0.388795 0.034827 0.640287 0.170023 -0.502449 -0.268626 0.226667 -0.504702 0.069833 0.031101 -0.072968 0.233927 0.390815 -0.120035 0.322401 0.014033 -0.161012 0.314351 0.003487 -0.323800 0.308942 -0.005177 -0.685240 0.236059 -0.159359 -0.282639 -0.065513 -0.211398 0.043741 -0.260397 0.157000 -0.363395 0.187989 -0.232711
一 -0.008929 0.436772 -0.063393 -0.475462 0.213182 -0.024033 0.259537 0.209538 -0.189135 -0.106415 0.076687 -0.037317 -0.015016 -0.023116 0.087102 -0.024534 0.405206 0.227833 -0.203727 0.000475 -0.087087 -0.124206 -0.013730 -0.148625 0.315175 0.211092 0.040917 0.135666 -0.313591 -0.053034 0.092274 0.049377 -0.003656 0.313829 0.288993 -0.399712 -0.233712 -0.053218 -0.065394 -0.179144 -0.039410 -0.203568 -0.575918 -0.321699 -0.361204 -0.245056 0.063256 -0.268106 0.054667 -0.035572
在 -0.268775 0.322372 -0.045904 -0.111403 0.366967 -0.230065 0.213630 -0.104656 0.089663 0.063430 -0.035251 0.089351 0.308111 -0.252457 0.057531 -0.302855 0.004927 -0.000282 -0.087594 -0.039300 -0.206409 -0.013036 0.123458 -0.211186 -0.103876 0.358845 0.140335 0.084357 -0.006704 0.077542 0.074890 -0.010436 -0.017951 0.183797 0.252047 -0.238075 0.198912 0.018287 -0.391530 0.057862 0.008644 0.022366 -0.087855 -0.186972 -0.203642 -0.133407 0.066510 -0.360549 0.191704 -0.367130
中 0.048465 0.144924 0.158949 -0.331836 -0.001660 -0.045204 0.003004 -0.332623 0.081061 -0.103284 0.346444 0.098539 0.211202 -0.102903 0.222805 -0.393000 0.042149 0.273934 0.312960 0.183007 -0.310819 0.197384 0.066185 -0.722907 -0.106306 0.112921 -0.165242 0.081121 0.024215 -0.077637 -0.125740 0.002629 -0.066712 0.378703 0.022340 -0.150883 0.129499 -0.009944 -0.589244 0.052736 -0.145158 -0.293214 -0.199025 -0.061482 -0.129795 -0.382808 0.129178 -0.220975 0.086354 -0.271599
了 0.016797 0.143591 0.101742 -0.184593 0.236305 0.175577 0.144305 -0.020160 -0.137486 0.461419 0.017293 -0.099773 0.377703 -0.252905 0.070021 0.139818 0.111920 -0.077817 -0.080234 0.032198 -0.035610 0.013721 0.237724 -0.431887 -0.038529 0.332730 -0.177584 -0.044704 -0.407269 -0.010451 0.033150 0.370017 -0.171160 0.135589 -0.053784 -0.159153 0.029862 -0.048678 -0.114208 -0.180897 -0.151785 0.098978 -0.307401 -0.289973 -0.240824 -0.122588 0.073225 -0.137573 0.219439 -0.344785
１ 0.034648 0.553272 -0.237972 -0.259336 0.134166 -0.781268 -0.206028 0.109109 -0.657696 0.278649 0.256734 -0.445839 -0.165196 -0.755006 0.681012 -0.243702 -0.358921 0.434903 -0.312766 0.216513 -0.422413 -0.130715 -0.146236 -0.144127 -0.637828 0.788935 -0.074717 -0.200524 -0.032733 0.519911 0.308876 0.379772 0.039688 0.010153 0.251488 -0.117950 0.346494 -0.018134 -0.818977 0.321523 -0.003864 0.101182 -0.550483 -0.060493 -0.172371 -0.751609 0.103212 0.165849 -0.284540 -0.104982
人 0.012637 -0.017380 -0.004955 -0.399018 -0.042844 -0.019466 -0.042523 -0.296118 -0.036673 0.260506 0.322853 0.242735 0.146299 -0.230984 0.507766 -0.269408 0.028585 0.190888 0.065293 -0.149794 -0.314718 0.022045 0.379026 -0.217568 0.105193 0.361821 -0.208838 0.041941 -0.722367 -0.158899 0.042563 -0.063377 -0.012899 0.115222 -0.094651 -0.054928 -0.097992 -0.071911 -0.209653 0.360520 -0.022214 -0.149385 0.020119 -0.322810 0.242919 0.119982 -0.079867 -0.381379 -0.071132 -0.220275
和 0.097223 -0.085762 -0.125291 -0.431574 0.384487 -0.226512 -0.099649 -0.296850 0.366400 0.129161 -0.102055 -0.074528 0.058209 0.178333 0.038032 -0.420908 0.003652 0.285721 0.314704 0.417675 -0.190917 0.099391 0.196928 -0.298303 0.214252 0.623019 -0.092870 0.068872 -0.035173 0.146250 0.047400 -0.078581 -0.105711 0.389114 -0.062042 -0.085853 0.026778 0.001967 -0.534647 -0.042197 -0.258211 0.215473 -0.052249 -0.532759 0.016513 -0.221343 0.202701 -0.175936 0.156626 -0.197973
有 -0.238157 0.206178 0.051775 -0.367335 -0.200408 -0.216163 -0.174419 -0.058971 -0.178264 0.402519 -0.010272 -0.204532 0.171067 -0.116188 0.103740 -0.036349 0.020597 -0.008849 -0.002409 0.098190 -0.378246 0.102823 -0.003163 -0.363943 0.478074 0.230332 -0.003083 0.034490 -0.314801 0.035850 0.063504 0.030682 -0.088914 -0.032181 0.152174 -0.193926 0.132874 -0.159097 -0.091246 -0.419919 -0.118649 -0.155980 -0.071001 -0.136136 -0.108986 0.056141 -0.100285 -0.719566 -0.061623 -0.132480
是 -0.244538 0.337809 0.009097 -0.322294 0.155890 -0.016153 0.226044 0.022032 0.082049 -0.080897 0.030063 -0.111036 0.020618 0.185341 -0.041921 -0.228886 0.068851 -0.170542 -0.100149 -0.196630 -0.152755 -0.088098 0.036803 -0.240329 0.288884 0.375996 -0.059735 0.349400 -0.229984 0.211450 0.106081 -0.003911 0.086114 0.031524 0.089255 -0.260362 0.062790 -0.012843 -0.327734 0.124835 0.043978 -0.044678 -0.341974 -0.160739 -0.029228 -0.033415 -0.201414 -0.673569 -0.044295 -0.083429
大 0.029855 -0.018182 0.131879 -0.315585 0.344016 0.023882 -0.055223 0.006863 0.388319 0.349956 0.247621 0.157013 0.052203 0.125670 0.005622 0.165878 0.089470 0.333833 0.180361 0.327572 -0.535426 -0.230066 0.194801 -0.350785 0.066503 0.148944 -0.300289 0.203051 -0.482899 0.256688 0.233889 -0.065547 -0.249908 0.289354 0.207715 -0.351883 0.148054 0.064687 -0.341138 -0.336535 -0.324056 0.220256 -0.290281 -0.196610 -0.324920 0.008308 -0.021400 0.090129 0.105862 -0.221541
年 0.084867 0.633417 -0.060332 0.002722 0.271891 -0.012918 0.292523 -0.212426 -0.120276 0.698800 0.333963 -0.052563 0.146477 -0.541803 0.018409 -0.264984 -0.256666 0.213955 -0.270538 -0.035638 -0.313701 -0.550101 0.109031 -0.307249 -0.495616 0.088239 -0.350155 0.254502 0.220393 0.733470 0.021382 0.089934 0.087127 -0.351512 -0.111577 -0.387590 -0.060105 0.134528 -0.425685 0.236210 -0.025131 -0.232026 -0.513596 0.225765 0.048278 -0.393528 0.242424 -0.670473 0.144857 -0.399672
不 -0.025568 0.356073 0.137657 -0.517215 -0.068108 0.113527 0.282864 0.028202 -0.071571 0.160163 -0.346879 -0.176087 0.403592 0.092752 0.113443 -0.065265 0.148894 -0.123364 -0.129359 -0.048249 0.037738 0.090461 0.061963 0.032968 0.272040 0.365697 0.112128 0.064367 -0.511515 0.491777 0.237182 -0.124650 0.030107 0.009721 0.025076 0.103498 0.301800 -0.012912 -0.299569 -0.403641 -0.149405 -0.325503 -0.174823 -0.128672 0.212491 0.280687 -0.186180 -0.357165 -0.112833 0.129559
０ 0.149380 0.882073 -0.169439 -0.074248 -0.001345 -0.563202 -0.202716 -0.027429 -0.902044 0.796848 0.427733 -0.307791 -0.123027 -0.455879 0.884183 -0.233099 -0.086696 0.556334 0.051945 0.290090 -0.569315 -0.474481 -0.146267 0.106765 -0.301718 0.867556 -0.255818 -0.466696 -0.502889 0.347339 -0.277859 0.331893 0.094693 -0.013642 0.071957 0.159121 0.192238 0.055840 -0.571022 0.355317 -0.359974 -0.060960 -0.194240 -0.208487 -0.358852 -0.550308 0.075121 0.234257 -0.304691 0.097683
为 0.112629 0.107075 -0.067162 -0.098237 0.133153 0.092491 0.148682 -0.074738 0.216872 0.067395 0.080802 -0.388970 -0.036387 0.052705 0.211421 -0.216850 -0.172560 0.187937 0.029468 -0.154000 -0.216613 -0.052299 0.131478 -0.337336 0.162390 0.329362 -0.008354 0.409012 -0.406756 -0.113414 0.109173 0.087832 -0.234113 -0.010080 -0.086800 -0.189402 0.387690 0.021569 -0.326087 0.203044 0.160004 -0.155816 -0.221394 -0.373303 0.053412 -0.141643 0.045080 -0.340074 0.182852 -0.285952
会 -0.307590 0.311012 0.631634 -0.805658 0.195702 0.194814 0.030540 -0.050988 0.071145 0.148743 0.321309 -0.272380 0.687890 -0.256327 0.293332 0.101688 -0.051005 0.071025 0.190814 0.653182 0.121672 -0.056460 0.081754 -0.376314 0.003708 0.166803 -0.478130 0.175842 0.005867 -0.110759 0.422987 0.144660 -0.292003 0.149437 0.319638 -0.219246 0.187356 0.328000 -0.374544 0.363841 0.211716 0.031106 0.136591 -0.055054 0.157604 0.093745 -0.254235 -0.145698 0.227078 -0.830749
业 0.150869 -0.150713 0.188121 0.120989 0.068984 -0.060115 -0.311809 -0.191322 -0.176127 0.245214 0.486520 -0.209882 -0.099489 0.233176 0.329728 0.205627 -0.016691 -0.035834 0.179573 0.182617 -0.236358 -0.731574 -0.056577 -0.965496 0.024343 -0.012018 0.390903 0.171568 -0.375142 0.671249 0.395062 -0.113733 -0.006313 0.081795 0.138108 0.069835 -0.283198 -0.300100 -0.451703 0.039870 0.160105 -0.214338 -0.070787 -0.742082 0.051551 -0.020609 0.098410 -0.567105 0.615172 -0.370261
发 -0.170994 0.079583 0.544726 0.019231 0.167228 0.137421 -0.225387 0.411243 -0.048605 0.202700 -0.037410 0.122782 0.095918 -0.057366 0.161226 -0.000246 -0.131011 0.043612 0.439179 0.046485 -0.025961 0.118661 0.430682 -0.902814 0.093299 0.542224 0.308467 -0.022192 0.287559 0.178891 0.274193 -0.046210 -0.336938 0.115561 0.469579 -0.026547 -0.106746 0.104800 -0.340431 -0.110118 -0.032578 -0.200778 -0.204523 -0.459225 -0.109626 -0.317411 0.474830 -0.261167 0.053314 -0.420302
“ 0.220780 0.345934 0.136245 -0.371001 0.141790 0.221188 -0.011899 -0.013446 -0.095987 0.118695 -0.099906 -0.240109 0.041970 -0.090615 -0.261579 -0.496769 0.036998 0.140800 0.047861 -0.092710 -0.136056 0.291563 0.057599 -0.318909 -0.045787 0.119075 -0.042942 0.188187 -0.171474 0.044591 0.092133 -0.111644 0.159611 0.043828 -0.234164 -0.436662 0.004376 0.085153 -0.296114 0.076953 -0.010614 -0.177739 -0.802352 -0.435863 -0.304524 0.099634 -0.373307 -0.140601 0.496494 0.101422
作 0.008398 0.020330 0.448035 -0.238653 0.193588 -0.069808 0.530934 0.046646 0.311875 0.399182 0.586498 -0.793568 -0.342093 -0.005413 0.311168 0.096805 0.054429 -0.131373 0.294534 0.618711 0.054741 0.244604 -0.077565 -0.232767 0.210251 0.472940 0.440447 0.185101 -0.033710 0.077733 0.185667 -0.131673 0.235965 0.487432 -0.063692 -0.169488 0.117424 0.001054 -0.394830 -0.046704 0.200048 -0.268050 -0.038053 -0.231415 -0.311514 -0.029022 0.376201 -0.185405 0.225322 -0.213420
” 0.259555 0.369049 0.260918 -0.330535 0.138116 0.133463 -0.005047 -0.024430 -0.084210 0.141044 -0.203005 -0.201750 0.111020 0.046992 -0.125755 -0.544645 0.054921 0.087415 -0.032417 0.042146 -0.109891 0.205003 0.035123 -0.244291 0.029305 0.180126 0.087006 0.311027 -0.118968 0.114833 0.052955 -0.139594 0.068559 -0.000182 -0.190174 -0.366637 -0.108526 0.222716 -0.289507 0.068424 -0.085951 -0.139694 -0.584209 -0.431135 -0.329508 0.108044 -0.331013 -0.103608 0.476495 0.096987
上 -0.182950 0.285604 -0.134140 -0.310853 0.347502 -0.182582 0.077703 -0.143220 -0.013873 0.094891 -0.097128 0.030480 0.315483 -0.246483 0.037612 -0.115380 0.100428 -0.057241 -0.120112 0.057669 -0.115038 0.133534 -0.322455 -0.265445 0.073878 0.363891 -0.087871 -0.270736 -0.323228 0.272839 0.072349 0.480314 0.157706 0.150061 0.637652 -0.171498 0.000244 0.177008 0.110117 0.279457 -0.230492 -0.126595 -0.144198 -0.177373 -0.300521 -0.114589 0.034785 -0.160832 0.388240 -0.394961
地 -0.361724 0.037914 -0.372160 -0.051977 -0.146965 -0.158715 0.011738 -0.164297 0.166882 0.161157 -0.024206 -0.107295 0.483622 0.136762 -0.129221 -0.172154 0.125337 -0.021815 -0.032931 -0.312096 -0.411400 0.173119 0.177201 -0.221341 0.154415 0.252363 0.048852 -0.334781 -0.065794 0.276405 0.441417 0.072852 -0.206366 0.212569 0.088289 -0.298807 0.203007 -0.067667 -0.171066 -0.016482 0.060159 -0.256691 -0.419794 -0.555970 -0.097768 0.114637 0.468918 0.008659 -0.358263 -0.413922
要 -0.222639 -0.063786 0.068913 -0.248260 -0.160700 -0.097458 0.441273 0.270351 -0.008064 0.214093 0.240464 -0.082909 -0.067719 0.322483 -0.032898 0.155868 0.165944 0.012428 0.215094 0.058661 0.027014 -0.005775 0.165630 -0.265217 0.339837 0.458268 -0.053044 0.245309 -0.132789 0.426419 0.246683 0.119471 0.226312 0.043635 0.330577 -0.037292 0.458726 -0.199264 -0.296897 -0.094470 0.418595 -0.605215 -0.103120 -0.132994 0.001631 -0.030445 -0.053894 -0.484815 0.290289 -0.643963
出 0.031559 0.293617 0.290522 -0.614952 0.077710 0.021928 0.074299 -0.077615 0.085585 0.123393 0.137769 0.174745 0.054115 -0.217038 0.101952 0.137710 -0.280506 0.164127 0.116660 -0.119478 -0.026102 0.061229 0.317612 -0.312717 0.098299 0.639206 0.070106 0.114255 -0.541772 0.195501 -0.094169 0.642635 -0.286776 0.104525 0.125719 0.015454 -0.118290 0.128065 -0.080436 -0.269326 0.335896 -0.079399 -0.134070 -0.061726 -0.254200 -0.013639 0.434574 -0.107987 0.445415 -0.478505
工 -0.096639 -0.274940 -0.021291 -0.051983 0.076055 -0.076738 0.117468 -0.063859 0.301355 0.588485 0.497514 -0.679760 0.077300 0.052431 0.415690 -0.242426 -0.034754 -0.093835 -0.023488 0.376498 -0.034799 -0.002436 -0.176038 -0.372380 0.075355 0.115318 0.151674 0.137274 -0.365122 0.423238 0.122240 -0.454511 0.270546 0.149495 0.004763 -0.150154 0.030031 -0.307286 -0.499146 -0.083220 0.203578 -0.233383 0.169569 -0.231226 -0.554900 -0.134420 0.425644 -0.302868 0.720555 -0.517329
９ 0.097424 0.529448 0.098847 -0.052883 0.027738 -0.469871 -0.046328 -0.214448 -0.587940 0.241809 0.180386 -0.502726 -0.222336 -0.899959 0.398094 -0.333198 -0.568488 0.522028 -0.536476 0.185528 -0.495168 -0.353979 -0.165739 -0.687429 -0.500768 0.593600 -0.165189 -0.333854 0.259512 0.700586 0.175506 0.281898 0.339843 -0.145193 0.124450 -0.004522 0.388374 -0.237172 -0.546173 0.342729 0.100172 -0.238555 -0.660512 0.121729 -0.071604 -0.693453 0.109941 -0.348862 -0.173065 -0.324704
家 -0.357429 -0.088217 0.049299 -0.063953 -0.217427 0.075868 -0.197270 -0.671503 0.049774 0.266295 0.328091 -0.113119 0.083933 -0.057453 0.406580 -0.151265 -0.209504 0.036205 0.484999 -0.071551 -0.321336 -0.349704 0.348798 -0.116809 0.290221 -0.037335 -0.100619 0.104763 -0.166879 -0.141081 0.279420 0.151979 -0.151618 0.172803 0.245515 -0.296450 0.141927 -0.080984 -0.479306 -0.136206 0.059771 0.015652 -0.443782 -0.251666 -0.278173 -0.278999 0.194401 -0.663184 0.141699 -0.273168
新 0.147551 0.266358 0.119235 -0.647253 0.499309 -0.141726 -0.413475 0.289398 0.208408 -0.129665 0.528784 -0.193424 -0.361151 -0.331757 0.231218 -0.472513 0.317109 0.166024 -0.117444 0.188111 0.252270 0.072976 0.101114 -0.212332 -0.273069 0.334810 0.261099 -0.157862 -0.260816 0.619058 0.594190 0.342545 -0.365515 0.579545 0.225206 -0.187282 -0.180045 -0.184562 -0.253111 -0.051778 0.271439 -0.080142 -0.006844 -0.010897 -0.065742 -0.608149 0.141266 -0.191991 0.316784 -0.305364
这 -0.233875 0.416741 0.140103 -0.447108 0.190866 0.008274 0.144256 0.235035 -0.172247 -0.206422 0.222347 -0.049250 0.021738 -0.090878 0.237999 -0.163263 0.264205 -0.044128 -0.360540 -0.098157 0.134846 0.065297 0.112162 -0.328842 0.128952 0.253862 -0.011690 -0.038329 -0.442209 -0.100796 -0.056650 0.137794 0.043364 0.176948 0.100501 -0.359634 0.027578 0.014108 -0.127047 -0.054027 0.207740 -0.222623 -0.456924 -0.396119 -0.341523 -0.057609 -0.097019 -0.505623 -0.182435 0.105492
行 0.434718 0.559795 0.446842 0.299717 0.402201 -0.437380 0.391276 -0.299850 -0.174274 -0.240238 0.301344 -0.044508 0.298873 0.238085 0.107221 0.074088 -0.010866 0.244008 0.057777 0.304897 -0.095268 -0.153952 0.131752 -0.238080 -0.124907 0.406713 0.346496 -0.129597 0.106916 -0.037762 0.349812 -0.319991 -0.010891 0.277503 0.045548 -0.240809 0.094099 -0.051759 -0.561001 0.156663 0.222272 -0.174839 -0.174014 -0.758769 0.018200 -0.080729 -0.143520 -0.143538 0.436514 -0.120885
个 -0.024322 0.247159 -0.241258 -0.171865 -0.080553 -0.111186 0.071754 0.225734 -0.130769 0.584461 0.108261 -0.028922 0.247807 0.204157 0.643701 -0.136244 -0.034209 -0.158276 -0.355047 -0.107724 -0.217870 -0.191227 0.014803 -0.193891 0.148690 0.162026 -0.316942 0.128067 0.022058 -0.002470 0.053824 0.149742 -0.171669 0.076530 0.060124 -0.463797 -0.353416 -0.074223 -0.173741 0.361025 -0.116156 -0.318369 -0.380390 -0.165503 -0.288924 -0.164560 0.003537 -0.708605 0.170730 -0.277270
市 -0.679408 0.100130 -0.105816 -0.285609 0.053462 -0.397285 -0.040419 -0.102549 -0.007381 0.423720 0.036280 -0.018555 0.175897 0.341491 0.493230 -0.069485 -0.417982 0.304860 0.288350 0.000008 -0.193306 -0.145982 0.100738 -0.369649 -0.390936 0.263740 0.340563 -0.420672 0.240717 0.372892 0.670258 0.317201 0.090065 0.050212 0.510857 -0.502130 0.365670 0.336996 -0.038832 0.264988 -0.463001 -0.093385 0.058621 -0.691307 0.084212 0.017314 -0.400545 -0.234987 0.500623 -0.192053
部 -0.513684 -0.043898 -0.230582 -0.393581 -0.424400 -0.708679 0.268623 -0.545344 0.418866 0.618269 0.167257 -0.268184 -0.046367 -0.100895 -0.096188 0.395545 0.142852 0.215270 0.392901 0.266471 -0.268912 -0.401719 0.206980 -0.387130 0.109316 0.387764 0.482945 -0.179351 -0.143626 -0.056121 -0.092230 -0.298587 0.063969 0.224776 0.023413 -0.063361 0.297025 -0.348069 -0.632871 0.339818 -0.285191 -0.433313 -0.358825 0.002774 -0.091055 0.095380 -0.067139 0.236379 0.318252 -0.506522
以 -0.059221 0.412737 -0.105696 -0.050973 0.025572 0.283273 0.248312 -0.059288 0.139717 0.298825 0.121675 -0.334392 0.311992 -0.033663 -0.019807 -0.129712 -0.193800 0.307509 -0.157174 -0.223920 -0.160201 0.026050 0.053002 -0.329206 0.113766 0.572781 -0.351231 -0.044508 -0.161201 0.347185 -0.074852 0.090838 -0.380508 -0.004805 0.102696 0.195079 0.252326 0.042179 -0.370485 0.159931 -0.045623 0.081313 -0.172370 -0.125467 0.224458 0.019943 -0.017140 -0.087896 0.171330 -0.290121
日 0.031852 0.246901 -0.020289 0.050781 0.182764 -0.283576 0.087435 -0.029085 0.265023 0.416378 0.040029 -0.205013 0.406967 -0.582052 0.699917 -0.007416 -0.289599 -0.268041 -0.097560 0.257541 -0.336247 0.259915 -0.042392 0.117506 -0.714767 0.651815 0.181808 0.374230 0.268864 0.462970 0.345959 0.210698 -0.425915 -0.426290 0.379250 -0.621339 0.153233 0.242028 -0.940398 0.422537 -0.006135 -0.191949 -0.368024 -0.015724 0.185745 -0.465561 0.032449 0.060809 0.146852 -0.110523
民 0.208995 -0.162828 0.102358 -0.400262 -0.188180 0.130620 0.477463 -0.500132 0.466503 0.404721 0.376430 0.235455 0.214784 -0.185011 0.430359 -0.556206 0.254354 0.647528 0.458690 -0.248883 -0.267900 -0.094108 0.409218 -0.631986 -0.158572 0.590951 -0.177271 0.084770 -0.284773 -0.217287 0.461151 0.068327 0.195915 0.138597 0.160111 -0.470687 -0.154744 -0.180844 -0.361400 0.260857 0.105810 0.304753 0.196569 -0.387682 0.333375 -0.144292 -0.052589 0.031486 0.048534 -0.207578
经 -0.423290 0.052922 0.309263 -0.755357 -0.108327 0.357556 0.244923 0.048354 -0.361795 0.177418 0.406474 -0.046076 0.055759 0.483264 0.319112 0.294812 -0.075300 0.384996 0.111737 0.213067 -0.067337 -0.042587 0.130100 -0.687488 0.094717 0.091805 0.017429 0.077842 0.458070 0.352408 0.258328 0.116788 -0.071504 0.007580 -0.029403 -0.273283 0.149139 0.120597 -0.529922 0.155673 -0.357545 -0.150190 0.192714 -0.637345 0.286305 -0.713574 0.550588 -0.453143 0.259634 -0.022999
来 -0.398866 0.662068 0.103861 -0.284066 0.200941 0.096357 0.316017 -0.126996 -0.008109 0.436026 0.471557 0.034940 0.194336 -0.123982 -0.097727 -0.067421 0.019905 0.022809 -0.055013 -0.178334 -0.032082 0.250354 0.446842 -0.146494 -0.217511 0.073370 -0.217604 -0.067185 -0.164478 0.513330 0.029503 0.259041 0.024942 0.127259 0.018634 0.179363 -0.145674 0.054484 -0.352972 0.077332 -0.017341 -0.041301 -0.465874 -0.100700 0.156799 -0.384286 0.341120 -0.030772 0.107771 -0.197509
进 0.697113 0.109954 -0.001100 -0.073528 0.158810 0.021041 0.251565 0.025592 0.009836 -0.021245 0.195242 0.184347 0.316897 -0.156619 0.267293 0.109630 0.327534 0.061309 0.113349 -0.112254 -0.197992 -0.158286 0.058308 -0.516698 0.090513 0.378778 0.361446 -0.114820 -0.039240 0.300696 0.066914 -0.451088 -0.534116 0.594706 0.251237 -0.357698 0.118580 -0.292563 -0.188102 -0.003575 0.117078 -0.163576 -0.091507 -0.404910 -0.043486 -0.308976 0.580041 -0.191685 0.801340 -0.254293
生 -0.144809 -0.201519 0.248279 -0.404936 -0.003575 0.265966 -0.085336 -0.012829 0.003114 0.244118 -0.193389 0.003366 0.257799 0.037834 0.135701 -0.388728 0.034449 0.124839 0.324557 0.347136 -0.419914 -0.228498 0.576831 -0.422240 -0.109817 0.605035 -0.061675 0.316923 -0.229804 0.659140 0.163796 -0.433408 -0.102288 -0.172490 -0.049628 0.355649 -0.321594 0.086918 -0.057540 0.270600 0.146896 0.217928 -0.327843 -0.410835 -0.254627 -0.303871 0.359077 -0.273057 -0.338772 -0.068659
对 -0.070514 0.339190 0.009386 -0.106546 0.311594 -0.120541 0.227222 -0.334040 0.126676 -0.007573 0.014247 -0.038199 -0.010393 -0.166231 -0.008408 -0.047352 0.024263 -0.062254 0.314226 0.032258 -0.101482 0.076422 0.282347 -0.149835 0.052257 0.599748 0.134255 0.098347 -0.086391 0.108908 -0.104087 0.039414 -0.101549 0.209069 -0.006264 -0.271697 0.416730 -0.154756 -0.559242 0.145324 0.071205 -0.056821 -0.007776 -0.532492 0.176549 -0.085627 0.082987 -0.284653 0.022522 -0.085812
成 0.060634 0.009395 0.021504 -0.399372 0.157287 0.148295 0.000270 0.157736 -0.233205 0.412219 0.063639 -0.872164 0.025201 -0.056405 0.048356 0.062527 -0.257199 0.128579 -0.445981 0.176736 -0.004897 -0.353359 0.157011 -0.672400 0.025097 0.189490 0.136324 0.055407 -0.597073 -0.264529 0.204011 -0.129445 -0.593905 0.456825 -0.281242 -0.130032 0.249321 0.230769 0.041034 0.227011 -0.440757 -0.184072 -0.074989 -0.058282 -0.069426 -0.490087 0.124240 -0.237669 0.069056 -0.083801
全 -0.077653 0.163152 -0.151319 -0.640743 -0.198942 0.019809 -0.113201 -0.128218 0.069662 0.222128 0.289953 -0.094980 0.509688 -0.196608 -0.016911 -0.092073 -0.241926 0.561566 0.290956 -0.210914 -0.410058 -0.245234 -0.246815 -0.778361 -0.295431 0.518295 -0.106154 -0.157552 0.024847 -0.102465 0.658197 -0.368651 0.087439 0.146311 -0.045335 -0.098146 0.194892 -0.235957 -0.003456 0.027489 0.000975 -0.549217 -0.045373 -0.023625 -0.237644 -0.241993 -0.124478 -0.266586 0.187489 -0.432589
２ 0.084094 0.555059 -0.234659 -0.187072 0.188804 -0.568044 -0.295500 0.174332 -0.635593 0.512402 0.422595 -0.352164 -0.024933 -0.606376 0.915999 -0.038790 -0.240161 0.596663 -0.140704 0.203871 -0.605868 -0.286668 -0.234809 -0.033739 -0.552077 0.733751 -0.042785 -0.282092 -0.217832 0.508788 0.074976 0.269145 0.050009 -0.020600 0.265849 0.006881 0.406590 -0.048340 -0.747944 0.400309 -0.109077 -0.102874 -0.343604 -0.176619 -0.404457 -0.762747 0.075994 0.299846 -0.268816 0.074034
到 -0.250090 0.085868 -0.265956 0.177832 -0.028506 0.105362 0.167728 -0.127087 -0.135006 0.412602 0.205844 -0.117609 0.613132 -0.192438 0.180942 0.175396 0.106216 0.234811 -0.314035 -0.172512 -0.030047 0.111199 0.450185 -0.276150 -0.134118 0.210985 -0.318877 -0.160962 -0.443712 0.283555 0.144901 0.205089 0.045264 0.173896 0.360787 0.054657 0.075026 0.097012 -0.405371 -0.214232 -0.395381 0.250594 -0.333083 -0.245663 -0.157978 -0.324723 -0.003064 -0.224658 -0.031044 -0.353350
多 -0.201517 0.149793 0.103685 -0.550590 0.051987 -0.274812 -0.345780 0.114464 -0.418605 0.633999 0.571720 0.031670 0.149012 -0.217610 0.527263 0.047547 0.149060 -0.221216 0.122214 -0.048885 -0.102247 -0.214381 -0.039912 -0.184646 0.268309 0.379701 -0.447752 -0.194349 -0.825536 0.524895 -0.289811 0.113938 -0.391241 -0.163194 0.036893 -0.157038 -0.162732 -0.064514 -0.097005 -0.155341 -0.054723 -0.019079 -0.044440 -0.241731 -0.214553 -0.214873 0.073642 -0.296634 -0.368036 0.109151
展 -0.079062 0.230889 0.806037 0.027810 0.173176 0.337672 0.012058 0.674039 0.044652 0.269154 0.069282 -0.099092 -0.149250 0.003327 0.364807 0.053090 0.137140 -0.020457 0.575692 -0.099935 -0.038384 -0.101774 0.484775 -1.035636 0.078087 0.399559 0.285689 -0.133024 0.610616 0.310633 0.461745 -0.111314 -0.211461 0.410421 0.372769 -0.005564 -0.029228 -0.065122 -0.269374 -0.110930 -0.134740 -0.332516 -0.112158 -0.516325 -0.142305 -0.334987 0.492458 -0.262162 0.174059 -0.456487
们 -0.267742 0.186382 0.016852 -0.042311 0.091152 0.640544 0.390354 -0.227127 -0.131892 0.346885 -0.024149 0.045272 -0.150651 -0.432061 0.152386 -0.224365 0.263232 -0.201429 0.145574 -0.261660 -0.198282 0.342034 0.602879 -0.444892 0.093485 0.250212 -0.193716 -0.003605 -0.583022 -0.124601 0.059372 -0.133852 0.535177 0.172813 -0.027442 -0.040565 0.562100 0.268580 -0.370616 0.133989 0.274851 -0.159956 -0.393557 -0.088613 0.052500 -0.129883 0.034865 -0.479478 0.079682 -0.283471
时 -0.149035 0.518230 -0.057868 0.072305 -0.099358 0.068647 0.449133 -0.176706 0.172216 0.366790 -0.011800 0.189098 0.417290 -0.106891 0.153349 -0.127194 0.101091 -0.183851 -0.329515 0.283140 -0.075472 0.123212 0.202917 -0.031890 -0.207528 0.360427 -0.325472 0.038028 -0.170679 0.222365 -0.130936 -0.220121 -0.239145 0.023960 0.686168 -0.030920 -0.180222 0.306089 -0.459116 -0.182129 0.229935 -0.396273 0.261843 -0.089366 -0.034285 -0.096176 0.263895 -0.416698 0.185827 -0.306401
我 -0.203796 0.150492 0.089844 -0.348068 -0.081931 0.540719 0.206185 -0.223015 -0.169654 -0.046601 -0.037542 0.131993 -0.022412 -0.301592 0.098314 -0.202411 -0.032085 -0.225739 -0.072534 -0.452707 -0.241694 0.040732 0.296099 -0.747322 -0.122482 0.072367 -0.254218 0.096370 -0.428106 -0.000126 0.094458 -0.138371 0.289865 -0.048864 -0.013690 -0.096788 0.430404 -0.016188 -0.461277 -0.035061 0.342893 -0.316131 -0.502409 -0.036188 -0.047035 -0.304536 0.211503 -0.593943 0.014475 -0.310460
实 0.400080 -0.063565 0.168803 0.009934 -0.274191 0.179086 0.413678 -0.260334 -0.191730 -0.040957 0.385601 -0.461040 0.307079 0.351741 -0.444654 -0.301897 -0.266995 -0.175718 -0.134626 -0.076484 -0.517268 0.156232 -0.204588 -0.948624 0.075000 0.381042 0.152856 0.024613 -0.002616 0.457909 -0.029668 0.103637 -0.065607 0.143098 0.437275 -0.095383 0.017484 -0.098389 -0.132381 -0.307524 0.632530 -0.225822 -0.153393 -0.693762 -0.034727 -0.192918 -0.110517 -0.230394 0.061409 -0.353478
动 -0.108878 0.091039 0.376023 -0.180270 0.108813 -0.180750 0.224028 0.135084 0.191798 0.020188 0.098019 0.024013 0.576503 -0.127214 0.576775 -0.189128 0.236646 0.130724 -0.046113 0.312216 -0.217113 0.313873 -0.036978 -0.763403 0.047430 0.554814 -0.103834 0.010642 -0.135368 0.402137 -0.021194 -0.869674 -0.183374 0.139501 -0.312750 0.032474 0.136705 0.337002 0.465661 0.397080 0.268546 -0.089018 -0.478934 -0.627036 0.089679 0.130635 -0.006972 0.039375 0.241989 -0.365652
他 -0.421622 0.094411 0.250371 -0.001654 0.063495 0.266965 0.078395 -0.218827 -0.164881 0.142546 0.338809 -0.044570 -0.039488 -0.440634 -0.011813 -0.209967 0.154578 -0.012500 -0.219384 -0.237980 0.113950 0.384434 0.560107 -0.491347 0.022249 0.358615 -0.403316 0.029458 -0.411572 0.065750 -0.127363 -0.028233 0.379284 0.108475 -0.032277 -0.135809 0.359441 0.179533 -0.349531 0.101684 0.229973 -0.446478 -0.298528 -0.124166 0.091406 -0.062275 0.227923 -0.326504 0.125169 -0.031323
主 -0.277824 0.207155 0.565660 -0.819338 -0.183402 -0.307319 0.274986 0.019772 0.026231 -0.126253 0.228351 -0.177679 -0.028098 0.168006 0.027666 -0.358408 0.239285 0.340285 0.585271 0.416611 0.116977 -0.244229 -0.038947 -0.113553 0.216339 0.470117 -0.161216 0.416348 0.068199 -0.022652 0.230409 0.570670 0.227998 0.565251 0.240225 0.399367 0.531773 0.076123 -0.477258 0.427896 0.167024 0.005178 0.077575 -0.710812 -0.013481 -0.477528 -0.483783 0.000145 0.243172 -0.580984
者 0.073872 -0.467054 0.472804 -0.064192 -0.145570 -0.008587 -0.194543 -0.139808 0.478436 0.187813 0.362871 -0.185789 0.159098 -0.425544 0.196263 0.134328 0.082111 -0.649612 -0.100701 0.255026 -0.064241 0.398019 -0.115915 0.323711 -0.656340 0.462311 -0.397346 -0.003956 -0.600342 0.230368 0.606984 -0.058878 -0.410129 -0.377036 -0.077078 0.072472 0.225904 0.497180 -1.006442 0.111439 0.314369 -0.296885 -0.510796 -0.521333 0.126622 -0.418441 0.095428 -0.195428 0.351734 -0.003072
学 0.156950 -0.230261 0.395168 -0.484391 -0.073938 0.259868 0.042307 -0.250739 0.011050 0.319732 0.218270 -0.538271 0.030634 0.041065 -0.032986 -0.319109 -0.052609 -0.192441 0.585159 0.393276 -0.524192 -0.089462 0.329652 0.062052 -0.294662 -0.163448 -0.237820 -0.126485 -0.186329 0.439766 -0.280191 -0.420899 -0.365354 0.480387 0.599740 0.396539 0.185072 0.040087 -0.191095 0.723068 0.018514 0.072602 -0.702221 -0.306160 -0.103547 -0.174694 0.297729 -0.714277 0.046934 -0.305086
产 0.077055 0.123853 0.037895 -0.001066 0.120791 0.356413 -0.382954 -0.411982 -0.130991 0.454597 0.237429 0.060899 -0.154606 0.492524 0.473928 -0.146048 -0.263963 -0.039419 0.225898 0.530433 -0.061190 -0.808410 0.052168 -0.815723 0.180687 0.817939 0.230773 0.375630 -0.043539 0.873055 0.572163 -0.267389 -0.076935 0.073901 -0.148384 0.281895 0.014570 -0.241919 -0.066137 0.426825 0.078894 -0.135432 -0.226706 -0.316244 -0.164109 -0.245610 0.178939 -0.313332 -0.092957 0.085110
方 0.367574 0.422203 0.196685 -0.366416 -0.292254 -0.038221 -0.022474 0.283404 0.024792 0.504086 0.492099 -0.031809 0.102041 0.156838 -0.012596 -0.022327 0.203551 0.016141 0.239673 -0.530802 -0.055437 0.138449 0.035828 0.018947 0.478919 0.651673 -0.125686 -0.628588 0.289400 0.017368 -0.116051 0.019525 -0.433921 0.225703 -0.065496 -0.509399 0.431248 -0.369914 -0.404618 0.158604 -0.179966 -0.397965 -0.009656 -0.450315 -0.218470 0.005886 0.141946 -0.010864 0.289545 -0.050601
理 -0.016769 -0.162967 0.325487 -0.950487 -0.060091 -0.008354 0.552616 -0.282185 0.015988 -0.287054 0.359738 0.002452 0.033081 0.159375 0.027965 -0.069339 -0.724177 -0.227905 -0.108512 0.720522 -0.029325 -0.123498 0.124037 -0.091955 0.309713 0.461129 0.197782 -0.467709 0.038050 0.147471 -0.020344 -0.036534 0.084972 0.309662 0.361308 0.354072 -0.061441 -0.247233 -1.012200 0.054983 -0.154471 0.028953 -0.128670 -0.665965 0.128035 0.425018 0.178529 -0.222996 0.132317 -0.194602
政 -0.164107 0.170852 0.663201 -0.272647 -0.475385 -0.372542 0.215007 -0.564585 0.385009 0.321852 0.431114 -0.480443 0.381867 0.260359 0.083710 0.060895 -0.430664 0.562363 0.219936 0.112197 -0.051394 0.000077 0.257835 -0.374812 -0.196525 0.505502 0.123107 -0.297709 0.078336 0.112648 -0.271209 -0.190691 0.145574 0.295944 0.147178 -0.717766 0.023127 -0.722867 -0.473161 0.054003 -0.079294 -0.571769 -0.003659 -0.756258 0.646941 -0.433638 -0.229539 0.247070 0.189384 -0.462634
开 -0.135685 0.612501 0.377762 -0.223380 0.311163 0.088767 0.075644 0.369246 -0.260111 0.695328 -0.025795 0.231497 0.292660 -0.334843 0.249872 -0.590147 -0.229576 -0.122968 0.579072 0.125101 0.112024 -0.052407 0.174471 -0.462682 -0.261977 0.098568 0.452558 -0.123074 0.124837 0.308935 0.211261 -0.234436 -0.256197 0.247517 0.214520 -0.021498 0.328613 -0.334662 -0.313042 -0.432414 0.057564 0.030844 -0.318695 -0.381515 -0.309981 -0.253530 0.147464 0.170968 0.378286 -0.538463
长 -0.136099 -0.208705 0.288451 -0.531340 0.261554 -0.083333 0.117042 -0.424340 0.454863 0.262422 -0.604459 -0.225917 0.326486 -0.628692 0.159893 0.190039 -0.088311 0.691889 -0.207864 -0.045240 -0.020371 -0.599257 0.055755 -0.348221 0.516530 0.075821 -0.023358 -0.226981 -0.152458 0.406388 -0.055868 0.061447 -0.394170 -0.148112 0.432032 0.110792 0.095568 0.042449 -0.868727 0.330350 -0.134563 -0.444433 0.201747 -0.073811 -0.296829 -0.415345 0.127948 0.078393 0.040014 -0.252385
本 -0.212294 -0.130363 -0.176848 -0.467475 -0.087513 -0.348740 0.323426 0.251992 0.278708 -0.295079 0.188423 -0.547234 -0.020924 -0.071338 0.184250 -0.023235 -0.237316 -0.299819 -0.251834 -0.026109 -0.168392 0.265230 -0.324049 -0.273213 -0.360796 0.816379 -0.026048 0.075463 -0.331005 0.131602 0.453168 0.329442 -0.296204 0.011209 0.269450 -0.358454 0.009099 0.056998 -0.215082 0.515031 0.141296 0.216109 -0.388048 -0.613987 0.340481 -0.816135 0.161997 0.043235 0.323907 0.110574
关 -0.087196 0.364614 0.127487 -0.580813 -0.420635 -0.380898 0.127997 -0.376360 0.307575 0.241460 0.365358 -0.414648 0.312659 -0.448014 0.298706 0.267890 0.376998 -0.085120 0.383475 0.231265 0.096705 0.097319 -0.034341 -0.533858 0.236573 0.537989 0.057724 0.057140 0.529346 -0.369023 0.235520 -0.337893 0.103815 0.324441 0.577473 -0.001075 -0.049065 -0.726362 -0.345014 -0.188456 -0.439932 -0.585235 -0.391242 -0.038626 0.152462 -0.040599 0.373277 -0.532568 -0.030387 -0.309143
建 0.106174 0.089688 0.156560 -0.524260 -0.597430 -0.018331 -0.035633 -0.115272 0.011393 0.633651 0.088035 -0.675389 -0.548628 0.144744 -0.071928 -0.235106 0.064032 0.036820 -0.278699 0.216710 -0.297491 -0.079682 -0.131586 -0.538512 -0.422612 0.141945 -0.575205 -0.304909 -0.053448 -0.099519 0.350808 -0.110396 -0.281259 0.428635 0.152016 -0.379684 0.348083 -0.268396 -0.342588 -0.124193 0.021449 -0.003055 0.277229 -0.442710 -0.347587 -0.619031 0.355347 0.030343 0.822303 -0.649603
重 -0.028872 -0.161691 0.180009 -0.017342 0.085059 -0.311286 0.279416 0.335698 0.140735 0.068678 0.344902 -0.298363 -0.354937 0.610628 0.240574 0.141181 0.403319 0.362613 -0.148038 0.686181 -0.201372 0.052326 0.499696 -0.370584 0.062788 0.160970 -0.175074 0.330691 -0.244524 0.185090 0.264769 0.251974 -0.106622 0.106587 0.233153 -0.173682 0.583235 -0.431569 -0.535785 -0.298335 0.003945 -0.468340 -0.231875 0.063921 -0.416986 -0.361143 0.049777 -0.311143 -0.258287 -0.421404
报 -0.017910 0.062831 0.129482 -0.229562 -0.021963 -0.584780 0.506724 0.142318 0.505639 0.257258 0.387000 0.059072 -0.171471 -0.772629 -0.068676 0.289206 -0.338539 -0.277202 0.191103 0.428151 -0.017723 0.337468 0.152011 0.099705 -0.709525 0.954424 0.013688 -0.467353 -0.126529 -0.200406 0.737265 -0.008686 -0.426065 -0.458828 -0.072683 -0.632413 -0.193144 0.230920 -0.739764 0.615484 -0.017175 0.251552 -0.748055 -0.448844 0.027616 -0.574824 -0.383828 -0.256998 0.246659 0.019941
月 0.083938 0.262237 -0.350154 -0.324718 0.129182 -0.383468 0.127468 0.239384 -0.516914 0.549697 0.268112 -0.184648 0.281195 -0.656372 0.472872 -0.243818 -0.611180 -0.134533 -0.387983 0.137052 -0.314607 0.333452 -0.101733 0.158532 -0.991697 0.452421 -0.149595 0.418494 0.405640 0.789461 0.786479 0.086485 -0.367383 -0.236621 0.512529 -0.714187 0.301718 0.234430 -0.915531 0.436026 0.162153 -0.038611 -0.884325 0.142676 0.090505 -0.530880 0.149465 -0.186675 -0.097934 -0.237193
力 0.175009 0.069615 0.296208 0.024215 0.022535 -0.016393 0.460335 -0.035885 0.055771 0.391744 -0.075972 0.044550 -0.455555 0.048258 0.255156 0.050785 -0.208818 0.123664 0.129634 0.526244 -0.102945 0.273266 -0.005765 -0.633715 -0.030414 0.556633 -0.332567 -0.154427 -0.109409 0.849260 0.515592 -0.387213 -0.248027 0.819287 -0.195693 0.142932 0.354745 -0.170701 -0.068647 -0.405054 -0.131698 -0.459460 -0.276091 -0.296525 0.211585 0.330756 -0.032502 0.111241 0.084193 -0.411062
现 0.001432 0.688290 0.163967 -0.129005 -0.137009 0.165856 0.155275 -0.072718 -0.158554 -0.068737 -0.092809 -0.098906 -0.206839 0.108787 -0.161961 -0.047497 -0.232927 -0.097390 0.020054 0.095342 -0.356125 -0.162012 0.403878 -0.618373 -0.179105 0.491331 0.282381 0.179365 -0.014533 0.328474 -0.078308 0.337994 -0.081839 0.412733 0.421926 -0.100084 -0.169674 0.209375 0.024026 0.054791 0.092875 -0.158506 0.184033 -0.716880 -0.313803 -0.216596 -0.216349 -0.334341 -0.235773 -0.361179
体 -0.363377 -0.018311 0.068633 -0.336720 -0.186636 0.008226 0.238026 0.008183 0.198852 -0.193684 0.331646 -0.031933 -0.164590 -0.197670 0.393082 -0.224909 0.099715 -0.071517 0.060740 0.272535 -0.370148 -0.251154 -0.178876 -1.084481 0.669886 0.391833 0.198889 -0.495455 0.078537 -0.051152 0.267275 -0.040496 -0.264560 0.343100 0.008455 0.216726 -0.071355 -0.018864 -0.051421 0.096711 0.233197 -0.100196 0.178262 -0.544137 0.220898 -0.439693 -0.369891 -0.694989 0.342315 -0.467748
高 0.563473 -0.205483 0.302509 -0.238493 0.166672 -0.018339 -0.092554 -0.086467 0.269731 0.348315 0.008563 0.234079 -0.024644 0.357488 0.078956 -0.201028 0.049165 0.398491 -0.054424 0.198556 -0.062712 -0.298496 0.222411 -0.420699 0.193391 0.319449 0.023736 -0.863755 -0.746918 0.850210 0.325634 0.028442 0.038755 0.485101 0.248541 -0.379193 0.241919 -0.044677 -0.203233 0.322529 -0.153421 0.034742 -0.171561 0.331467 0.217150 -0.254719 0.154747 -0.333900 -0.139116 -0.371227
于 -0.104426 0.528268 0.160280 -0.142562 -0.000832 -0.438478 0.041545 -0.134679 0.326139 0.197261 -0.121448 -0.223699 0.214188 -0.161522 -0.033597 -0.232492 -0.147656 -0.192136 -0.350332 0.054121 -0.253264 0.029176 -0.155658 -0.182050 0.045696 0.518634 0.043196 0.076618 -0.131243 0.212101 0.158255 -0.273534 -0.177309 -0.114545 0.069171 0.073357 0.184110 -0.148338 -0.492054 0.166455 -0.063362 0.026555 -0.249869 -0.028919 0.324612 -0.188638 0.214267 -0.461031 -0.380742 -0.508224
区 -0.675584 0.083593 -0.308900 -0.112936 -0.388708 -0.686258 0.049493 -0.033319 -0.029665 0.168741 0.116736 -0.259438 0.297895 0.563091 0.452949 -0.153763 0.007361 0.583274 0.167040 -0.354696 -0.404603 -0.090032 0.626832 -0.220625 -0.295650 0.249018 0.146462 -0.355054 0.053575 0.148782 0.609311 -0.044728 -0.309287 0.232297 0.127465 -0.559490 -0.315791 -0.193155 -0.453585 0.295630 -0.041718 -0.224606 -0.307691 -0.581360 -0.004286 0.118641 0.664645 0.202351 -0.226960 -0.666858
５ 0.005032 0.487417 -0.265057 -0.023048 0.146965 -0.426974 -0.166724 0.011083 -0.694767 0.468487 0.428485 -0.491091 0.004246 -0.559208 0.810222 -0.232801 -0.344800 0.703498 -0.262975 0.392113 -0.453781 -0.395159 -0.126744 -0.119069 -0.445770 0.757713 -0.107359 -0.433911 -0.237764 0.391555 -0.183204 0.256189 0.031973 0.003636 0.375219 0.148243 0.433456 -0.018298 -0.659208 0.349449 -0.114451 -0.015836 -0.348504 -0.253075 -0.498219 -0.651920 0.323960 0.181486 -0.370447 0.171042
加 0.279703 -0.017200 -0.138810 -0.261820 0.372779 -0.261427 0.494709 -0.083660 0.117649 0.002616 0.208442 -0.035301 0.123245 -0.391304 0.212646 0.314236 0.102058 -0.014838 0.182697 0.375595 -0.317491 -0.826757 0.220988 -0.204030 0.371606 0.474100 -0.617022 -0.265359 0.043010 0.468270 0.478691 0.213863 -0.410318 0.229098 -0.173084 -0.412598 0.256349 -0.150921 -0.089166 -0.284113 0.165343 -0.342928 -0.071285 -0.402281 -0.117574 -0.026212 0.175030 0.114751 0.369291 -0.313923
下 -0.207290 0.122992 -0.078160 -0.171390 0.421440 -0.185714 -0.153317 0.224603 0.023581 0.248506 0.052992 -0.278024 0.380167 -0.277246 0.149004 -0.385232 0.186602 0.284328 -0.470891 0.074890 -0.106659 0.149265 -0.179639 -0.134508 0.053201 0.325239 0.274910 0.029127 -0.529240 0.513485 -0.079491 0.131953 0.555506 -0.125841 0.592280 -0.020269 0.031496 -0.024129 -0.001868 0.036388 -0.110195 -0.527722 -0.196272 -0.377267 0.106871 0.007353 0.297513 0.143937 0.284245 -0.515203
场 -0.490510 0.101989 0.004065 -0.197784 0.079823 -0.082030 0.008298 0.065050 -0.490063 0.158060 0.082528 0.526381 0.156700 0.448830 0.576700 -0.084598 -0.166450 -0.086842 0.301944 0.059163 -0.320435 0.001438 -0.096861 -0.744789 -0.113144 0.419903 -0.045685 -0.126130 0.119745 0.278450 0.576045 0.333388 -0.215347 0.004017 0.472587 -0.251467 0.422691 0.546667 0.218315 -0.027149 -0.508326 -0.237522 0.178779 -0.482191 0.154140 0.192749 -0.320120 -0.415634 0.794597 -0.271370
同 -0.000275 0.439099 0.438918 -0.374380 0.065555 -0.288915 0.556480 -0.227020 0.466069 0.309232 0.361441 0.181185 -0.012124 -0.258574 0.185475 -0.496871 0.171123 0.349907 -0.070539 0.166380 0.085597 -0.073702 -0.149908 0.003768 0.128277 0.474554 -0.280176 -0.060256 -0.065768 -0.060696 0.169702 -0.236753 0.150671 0.554976 0.567729 0.034294 0.115783 0.215326 -0.244390 -0.412766 0.221140 -0.431046 0.160946 -0.328930 0.053005 -0.109054 0.385460 -0.381298 -0.281834 0.156885
公 -0.067647 0.383927 0.366328 -0.450427 0.169336 -0.334550 0.040611 -0.876950 -0.096768 0.566953 0.605204 0.100683 0.032390 -0.167410 0.179500 -0.354676 -0.888965 -0.162487 -0.155052 -0.427023 0.232461 -0.255284 -0.126199 -0.404414 0.317671 0.395414 0.340824 -0.319203 -0.277231 -0.026013 0.711937 -0.465975 0.088465 -0.415008 0.355414 -0.065791 0.022710 -0.132634 -0.471104 0.013939 -0.097123 0.098596 0.133404 -0.519685 -0.428001 0.033787 -0.096284 0.180162 0.161109 -0.287990
３ -0.045535 0.627397 -0.264897 -0.058617 0.008798 -0.754627 -0.087547 0.083959 -0.706812 0.510480 0.232772 -0.399525 -0.011134 -0.613471 0.797876 -0.121036 -0.402199 0.644510 -0.099282 0.388330 -0.743503 -0.313884 -0.299384 -0.087102 -0.393673 0.651242 -0.067262 -0.305749 -0.356332 0.257667 0.070598 0.311635 0.117209 -0.048657 0.344974 0.216834 0.265078 -0.028771 -0.609439 0.235466 -0.176040 -0.238942 -0.332851 -0.151008 -0.367968 -0.689812 0.195493 0.151853 -0.212968 0.350405
社 0.037828 0.248306 0.381551 -0.942188 -0.197391 0.057424 -0.485056 0.153910 0.197787 0.238281 0.321322 -0.396686 -0.242992 -0.504025 0.611351 -0.121894 -0.162617 -0.071506 0.281929 0.457861 0.095574 0.503668 0.229243 -0.059587 -0.279534 0.496419 -0.174145 0.224368 0.507355 0.485589 1.166692 0.438919 -0.482961 0.443619 0.448635 -0.254296 0.206333 -0.010587 -0.456334 0.501389 0.379519 0.423888 -0.050129 -0.504549 0.305918 -0.094612 0.123564 -0.207383 0.074349 -0.921595
化 0.067720 0.334747 -0.152156 -0.839776 -0.170498 0.371714 -0.341891 -0.424400 0.287777 0.032781 0.046088 -0.104669 -0.316077 0.435865 0.028342 0.034959 0.390780 -0.287845 0.066777 0.322097 -0.478881 -0.495762 0.193508 -0.600004 -0.376306 0.452860 0.285447 -0.064918 0.320999 0.643301 -0.000109 -0.144752 -0.348015 0.427169 -0.003245 -0.032374 0.321444 -0.038670 0.031369 0.318373 -0.103297 -0.068610 0.209222 -0.709779 -0.210849 -0.155875 -0.167164 -0.499015 0.297990 -0.075237
分 -0.355970 -0.261355 -0.260243 0.080730 -0.180135 -0.160774 0.139423 -0.111455 0.371321 0.486718 0.077159 -0.074258 0.174552 0.039031 0.247934 0.024880 -0.619876 0.395617 -0.213853 0.172254 -0.611939 0.153174 -0.259047 -0.439334 0.124797 0.547146 -0.086524 0.109026 -0.648826 0.060452 -0.420588 0.029651 -0.465916 0.064064 0.657474 -0.181866 0.047431 -0.439761 -0.037377 0.040915 0.067997 -0.551089 -0.207082 -0.117265 -0.259666 -0.043336 0.176337 -0.308410 0.109173 -0.018030
面 0.177269 0.218908 -0.199937 -0.335438 -0.123018 0.152753 -0.405495 0.412426 0.180485 0.407360 0.577008 0.139564 0.274448 0.160189 -0.151573 -0.100332 0.187310 -0.207794 0.002920 -0.634622 -0.256818 -0.098211 -0.049381 -0.318291 0.080876 0.703363 -0.119360 -0.237407 0.036594 0.072623 0.385295 0.117429 -0.179170 0.239944 0.214184 -0.087230 0.581057 -0.477370 0.016238 -0.035322 -0.068791 -0.626369 -0.103871 -0.276434 -0.633056 0.014096 -0.043731 -0.106463 0.261485 -0.216646
合 0.143910 0.083575 0.377442 -0.708413 0.233645 -0.264686 0.139811 -0.387631 -0.144695 0.744880 0.419805 -0.394183 0.363899 0.245692 0.225800 0.003060 -0.355289 -0.147334 0.141286 0.211715 -0.069840 0.043190 -0.244284 -0.563625 0.423223 0.435814 0.233228 0.014213 0.486120 -0.158327 0.614292 0.251513 -0.614175 0.282983 -0.069476 -0.195763 0.030685 -0.038875 -0.549127 -0.369544 0.513791 -0.455290 -0.122949 -0.039173 0.611399 0.162891 0.398705 -0.283853 0.208834 0.190897
说 -0.339429 0.274317 0.369945 -0.188307 0.099288 0.076740 0.324322 -0.119194 0.184640 0.033091 0.105335 -0.104091 0.006906 -0.703191 -0.454604 -0.074568 -0.047140 -0.035687 -0.093240 -0.093871 0.091804 0.268434 0.463312 -0.225295 -0.097178 0.260580 -0.206613 -0.027707 0.062790 0.049380 -0.016953 0.281463 0.528798 0.203247 -0.087090 -0.501301 0.124292 0.219040 -0.854692 0.213384 0.143848 -0.332682 -0.400350 -0.270330 0.021539 -0.030834 -0.261010 -0.626630 0.210370 0.187150
前 -0.343984 0.558103 -0.009327 -0.119074 0.167415 0.007437 0.319329 0.355395 -0.079851 -0.202917 -0.075282 -0.008525 0.256517 0.039772 0.229103 -0.217414 0.047611 0.062751 0.174794 -0.481348 -0.022584 -0.349253 0.005114 -0.234342 -0.349174 0.476645 0.096711 -0.225783 -0.239540 0.079534 0.107251 0.076663 -0.277902 0.016225 0.011972 -0.154575 0.210881 0.163708 -0.745131 -0.149813 0.045868 -0.513816 -0.139008 0.111323 -0.215295 -0.281973 0.244023 -0.099777 0.084863 -0.165222
等 0.005780 -0.142234 0.054461 -0.314371 0.077331 -0.511102 -0.102451 -0.169478 0.228974 0.152796 0.194764 -0.089708 0.363903 0.354971 0.115021 -0.340204 0.450936 0.073779 0.466496 0.260710 0.065118 -0.282679 -0.094361 0.158576 0.385316 0.596085 -0.142558 -0.287709 -0.192414 0.296560 0.080412 0.144361 -0.532438 0.110531 0.131219 -0.015209 -0.242964 0.065844 -0.383824 0.143232 -0.146790 0.058725 0.041511 -0.406407 -0.593004 -0.127817 0.011855 -0.255736 0.273632 0.051227
天 -0.517795 0.235695 0.155893 0.061929 0.454445 -0.079462 0.268880 0.036914 0.027082 0.090409 0.185118 0.094600 0.470030 -0.719384 -0.128600 -0.639563 -0.186833 -0.278037 0.040293 0.376378 -0.227189 -0.191253 0.281371 -0.202370 -0.150520 -0.039889 0.427919 0.109171 -0.240020 0.074620 0.148922 0.151932 -0.041594 -0.404467 0.622205 -0.675314 -0.081799 0.376432 -0.449153 0.423876 -0.170682 0.029631 -0.146985 0.110826 -0.315091 0.099591 -0.053912 -0.235085 0.355394 -0.669155
电 0.031625 -0.010731 -0.333663 0.052328 -0.028229 -0.046196 -0.271754 -0.586506 0.481228 0.353629 -0.411245 -0.037720 -0.017915 -0.283325 1.109233 -0.028201 -0.470936 -0.298988 -0.072412 0.470279 0.015500 0.629975 -0.277222 -0.168805 -0.368162 0.577540 0.044112 0.011928 -0.132101 0.570866 0.553656 -0.242525 -0.741108 0.066334 0.593049 -0.155385 -0.101960 -0.164558 -1.220361 -0.188381 0.201592 -0.298912 -0.557411 0.180027 -0.389854 -0.727814 -0.454896 0.088422 0.566606 0.153224
自 -0.202020 0.240594 0.195575 -0.169085 -0.149969 -0.206852 0.241276 -0.604397 0.106898 0.161679 -0.354761 -0.308131 0.159987 0.139261 0.446146 -0.394981 -0.241134 0.261898 -0.273464 -0.302963 -0.390469 0.461681 0.560182 0.090385 0.402785 0.296993 -0.315851 -0.198458 -0.326851 0.291276 0.440140 0.178991 -0.076151 0.244770 -0.389420 0.240761 -0.047905 -0.321632 0.140407 0.279806 0.423036 -0.144242 -0.225192 -0.372772 0.122807 -0.503307 0.263860 -0.256925 0.201147 -0.511883
用 -0.023297 0.285002 0.212764 0.098511 -0.269841 -0.220686 0.053945 -0.182560 -0.028603 0.578017 0.203117 0.132316 0.066377 0.287280 -0.160607 -0.071629 -0.036437 -0.293310 0.143973 0.332448 0.006252 0.394840 -0.127047 -0.233485 0.541227 0.457610 0.042794 0.021503 -0.510995 0.420750 0.405386 -0.570329 -0.374947 0.073924 -0.170902 -0.083351 0.329340 0.034424 -0.405731 0.103885 0.516385 0.194926 -0.313092 -0.081120 -0.205438 -0.204837 0.222135 -0.192692 0.217513 0.129389
就 -0.293857 0.389751 0.185310 -0.201678 0.250661 0.179037 0.205379 0.294697 -0.233783 0.235842 0.016858 -0.336420 0.220434 -0.186930 0.103120 -0.011411 0.101551 -0.168906 -0.191678 -0.087960 0.064138 -0.090232 0.028203 -0.180064 0.095282 0.162350 -0.083316 0.297465 -0.382324 0.356464 0.041519 -0.138718 0.145368 0.223245 0.107260 0.063922 0.058421 0.107125 -0.321204 -0.105296 -0.010138 -0.099795 -0.257042 -0.295431 -0.195165 0.125588 -0.261810 -0.334196 0.348977 -0.210502
事 0.146481 0.081844 0.682453 -0.346640 0.306540 -0.231414 0.327115 -0.109118 -0.457234 -0.132251 0.245845 -0.266851 -0.011363 0.071172 -0.198496 0.339286 0.503965 -0.222687 -0.015189 -0.022622 -0.149845 -0.010437 0.112467 -0.848747 -0.126066 0.262950 0.247349 -0.024715 -0.193640 -0.060730 0.139441 -0.419776 0.018698 -0.149998 0.319896 0.302727 -0.361395 -0.064249 -0.899144 0.342806 -0.058851 -0.205928 0.055976 -0.404506 -0.097375 0.261626 -0.390088 -0.268188 -0.266755 -0.591101
记 -0.124070 -0.631125 0.589019 -0.251720 -0.524559 0.080698 -0.312568 -0.345423 0.518462 0.248418 0.092350 -0.060359 0.836600 -0.770277 0.248181 -0.033973 -0.075620 -0.395296 -0.408328 0.139487 0.187428 0.297503 -0.380526 0.229786 -0.844161 0.665010 -0.352762 -0.207955 -0.428644 0.105416 0.682549 0.311711 -0.431047 -0.129091 0.372970 -0.196710 -0.036238 0.442712 -1.194621 0.419730 0.196123 -0.356336 -0.654054 -0.327488 0.011095 -0.716974 -0.196451 -0.021775 0.261708 -0.279802
员 0.030252 -0.236878 0.017926 -0.621958 0.002736 -0.149966 0.147545 -0.302986 -0.136737 0.257703 0.319331 -0.082756 0.634130 -0.193096 0.469985 0.190582 -0.432348 0.443026 0.292565 0.713539 -0.028520 -0.226193 0.032854 -0.196376 -0.050030 0.245039 -0.088817 0.033004 -0.767110 -0.260083 0.036404 -0.376743 -0.118980 0.430268 -0.299738 0.160278 0.050186 0.302932 -0.377262 0.906436 -0.007608 -0.405457 -0.062014 -0.199653 -0.027069 -0.145987 -0.147395 -0.333537 0.183205 -0.610291
后 -0.128295 0.210595 0.087017 0.132197 0.007523 0.052840 0.373842 -0.140730 -0.258345 0.022708 0.243650 -0.089498 0.580835 -0.131043 -0.298403 0.012204 0.037174 0.148659 -0.152718 -0.244390 -0.246488 0.015953 0.215232 -0.291280 -0.138710 0.496185 0.304691 0.039957 -0.464096 0.207110 -0.208710 0.023068 -0.172740 -0.200866 0.205618 -0.294377 0.019963 0.090189 -0.347570 0.021032 -0.260219 -0.055359 -0.049057 0.132086 -0.096613 -0.527789 0.278387 -0.014215 0.386013 -0.337758
济 -0.398986 -0.000237 0.479652 -0.523221 -0.207675 0.323800 0.310911 0.218604 -0.221758 0.153154 0.256532 -0.181972 -0.198381 0.480632 0.394045 0.336923 0.145053 0.493487 0.287255 0.223112 -0.140956 0.025010 0.087479 -0.901394 0.022064 0.327510 -0.017455 0.161335 0.605734 0.409364 0.545632 0.287845 -0.223925 0.060505 0.225518 -0.406355 0.181856 -0.149798 -0.522581 0.252895 -0.490708 -0.101432 0.377301 -0.701015 0.450987 -0.777845 0.733455 -0.294307 0.201883 -0.333998
与 0.003965 -0.038375 -0.017447 -0.411473 0.640709 -0.230924 0.230594 -0.158620 0.165030 0.276958 0.242601 -0.079433 0.026685 -0.274118 0.131332 -0.280830 0.066735 -0.034093 0.455024 0.180949 -0.361124 -0.199762 0.254342 -0.176161 0.419466 0.392503 -0.172648 0.162832 0.176728 -0.144807 0.152919 -0.130357 -0.280375 0.428939 0.191157 -0.047891 0.180784 0.186413 -0.461140 -0.055363 -0.004227 0.046370 0.138351 -0.662982 0.125468 -0.158505 0.338434 -0.320866 -0.014944 -0.048063
： -0.145448 0.177560 -0.028440 -0.237553 0.060186 -0.214024 0.069294 0.052697 0.421685 -0.099425 0.073575 -0.105856 -0.148216 -0.438721 -0.311049 -0.485406 -0.268528 -0.086294 0.081083 -0.365253 -0.085443 0.203321 0.181807 -0.191955 -0.027156 0.252458 -0.307118 -0.219805 -0.167632 -0.105446 0.194547 0.229144 0.139963 -0.360444 -0.338549 -0.651284 -0.049551 -0.063626 -0.772821 0.029428 0.314713 -0.446560 -0.852283 -0.414087 -0.197635 -0.462643 -0.507548 -0.578953 0.287537 0.073397
定 -0.107250 -0.000105 0.516395 -0.165522 0.253044 0.390284 0.462335 0.185108 -0.047791 0.081740 0.005164 -0.695757 0.026273 0.130325 0.209642 0.119174 -0.346575 0.480878 0.204470 0.231541 -0.295990 0.088587 -0.079747 -0.079267 0.138438 0.974403 -0.094989 -0.182826 0.095851 -0.328560 0.393689 -0.299184 0.066336 -0.287587 0.555924 -0.367466 0.015270 -0.473502 -0.234541 0.070565 -0.219531 -0.230019 -0.150107 -0.273232 0.311652 -0.109647 0.248873 -0.459848 0.411968 -0.397521
制 0.174863 0.407843 0.056098 -0.113140 0.266545 0.288732 0.080515 -0.385692 -0.225666 0.050933 0.543674 -0.518628 -0.329612 0.077879 -0.183877 -0.292801 -0.058889 0.172470 -0.318844 0.851335 0.082230 -0.112382 0.017983 -0.514103 0.675082 0.615644 0.349090 -0.361385 0.284344 0.010377 0.614787 -0.281853 -0.343141 -0.163827 0.024802 -0.036682 0.335435 -0.520597 0.000186 -0.166511 -0.299247 0.029609 -0.199786 -0.575294 0.507796 -0.296068 -0.398222 -0.316818 0.685024 -0.298773
文 0.069511 -0.171376 0.505856 -0.988779 -0.384721 0.289217 -0.262787 -0.545109 0.660021 0.187042 0.343011 -0.321838 -0.336969 -0.092585 0.055043 0.052515 0.493388 -0.071616 0.174018 -0.007370 -0.662111 0.189950 -0.075889 -0.320043 -0.617163 0.492902 0.011181 -0.264316 0.098590 0.173913 -0.261393 0.203554 -0.363783 0.156216 0.124823 -0.122785 0.158522 0.346220 0.003088 0.409213 0.083325 0.017049 -0.104021 -0.306364 -0.561204 -0.092987 0.161499 -0.681404 0.382650 -0.194796
能 -0.089674 0.082588 0.139853 -0.158462 0.106976 0.201001 0.253771 -0.027547 -0.223854 0.263284 -0.435315 -0.325441 0.319761 -0.036351 0.129270 -0.125770 -0.369327 -0.291386 0.160326 0.011310 0.098634 0.067252 0.000284 -0.364445 0.369882 0.339490 -0.223464 -0.189954 -0.628427 0.515767 0.367348 -0.326770 -0.346944 0.322828 0.160208 0.116439 0.171131 -0.071906 -0.013783 -0.357504 -0.289368 -0.303093 -0.230950 -0.295511 0.266877 0.514263 -0.043249 -0.438892 0.077510 0.048173
也 -0.257371 0.418759 0.248483 -0.218865 0.037217 -0.130403 0.269546 -0.014569 0.061687 0.185459 -0.071459 -0.101604 0.338304 -0.158799 0.039885 0.162729 0.260723 -0.054041 0.033103 0.085268 -0.091167 -0.137328 0.158433 -0.149162 0.384978 0.238266 -0.075438 0.164646 -0.436348 0.256131 0.254150 0.053132 0.034924 0.160997 0.329950 -0.063216 0.031665 0.258634 -0.119880 -0.264778 0.026003 -0.149827 -0.086093 -0.117532 0.042704 0.024427 -0.085283 -0.503980 -0.056674 0.009574
７ 0.008388 0.653945 -0.151597 -0.056077 0.095663 -0.619508 -0.096435 -0.182408 -0.761467 0.253974 0.343129 -0.331108 -0.228655 -0.839410 0.646538 -0.257724 -0.442152 0.651986 -0.359149 0.256265 -0.564181 -0.410494 -0.174238 -0.573036 -0.489483 0.577030 -0.065226 -0.295445 -0.030107 0.486045 0.077933 0.316963 0.273377 -0.047054 0.190643 0.056334 0.385162 -0.115850 -0.626504 0.350563 -0.164685 -0.120665 -0.548805 -0.083367 -0.313176 -0.707166 0.071694 -0.008485 -0.282222 0.083099
机 -0.278194 0.451740 -0.112820 0.136255 -0.327808 -0.222859 -0.048951 -0.687379 -0.392038 -0.016928 0.354154 0.338127 0.268388 0.171398 0.217768 0.060375 0.101991 -0.050255 -0.234089 0.456782 0.498864 -0.020577 -0.000178 -0.578101 0.349527 0.618114 0.162006 0.173473 0.098125 0.127271 0.432211 -0.467107 -0.154109 0.571863 0.183044 0.038007 0.116465 -0.085824 -0.235310 -0.183309 -0.791504 -0.028780 -0.481822 -0.156435 0.197162 -0.311328 -0.257454 -0.319888 0.598605 -0.201945
法 0.172337 -0.005843 0.643343 -0.622165 -0.054333 -0.017414 0.345838 -0.729814 -0.194111 -0.309617 0.561290 -0.436025 0.434972 0.130328 0.293042 0.174420 -0.089566 0.303177 -0.068864 -0.067974 -0.239793 0.219219 0.278565 0.151569 0.281414 0.655915 -0.275969 -0.345050 0.206516 -0.046656 0.088535 -0.392095 -0.247630 0.001709 0.239264 -0.216048 0.273560 -0.827995 -0.156274 0.000269 0.142829 0.049945 -0.228351 -0.462243 -0.224159 -0.296261 -0.194057 -0.274137 0.198511 -0.079125
４ 0.003194 0.468998 -0.256832 0.009538 0.119757 -0.709106 -0.207022 0.058797 -0.773723 0.459275 0.288227 -0.363440 0.023239 -0.527275 0.773205 -0.174054 -0.380500 0.599171 -0.180354 0.382331 -0.645924 -0.291783 -0.241704 -0.253030 -0.336670 0.670946 -0.039748 -0.271783 -0.270672 0.261395 0.076334 0.343022 0.038938 -0.099553 0.330201 0.081285 0.392084 -0.219964 -0.668520 0.339520 -0.271855 -0.160454 -0.272554 -0.239592 -0.552328 -0.740820 0.211098 0.146788 -0.334365 0.305794
务 0.385505 -0.052437 0.243225 -0.702126 -0.683846 -0.256825 0.282753 -0.474410 -0.209055 -0.254186 0.173258 -0.119590 0.179517 0.265395 0.318585 -0.255812 -0.320819 -0.003227 0.540276 0.218505 0.427101 -0.612544 0.016912 -0.571749 -0.011598 0.077663 0.132905 -0.026715 -0.247938 0.163623 0.477383 -0.451626 0.254116 0.220731 0.197801 -0.106102 0.143995 0.206286 -0.959538 0.143549 0.237893 -0.666130 0.012651 -0.528085 -0.350228 0.005136 0.016566 -0.040584 -0.279969 -0.536096
过 0.126283 0.236980 -0.176298 -0.407991 0.389415 0.025838 0.344353 -0.062402 -0.314479 0.520844 0.362378 0.164313 0.375991 -0.018086 0.080052 -0.160961 0.161590 -0.008298 -0.290801 0.185504 0.159983 0.289603 0.370145 -0.388090 0.139355 -0.002304 -0.328595 -0.112564 0.002521 0.632698 -0.239228 -0.124402 0.230511 -0.462058 -0.106187 -0.286792 -0.115203 0.010542 -0.470215 0.060211 -0.335694 -0.412267 0.093285 -0.130905 0.007549 -0.554109 -0.013840 -0.483171 0.346824 0.017350
得 0.010947 0.082190 0.334429 -0.019472 0.138018 0.346183 0.305058 0.240706 -0.213355 0.346226 0.104259 -0.403981 0.591271 -0.290419 -0.100194 0.503407 -0.145992 -0.259408 -0.133207 -0.037077 -0.238449 0.120977 0.158943 -0.349705 0.135279 0.416167 -0.344002 0.001770 -0.569025 0.467421 0.155289 0.203686 -0.163823 0.555662 -0.449200 -0.280904 -0.156333 -0.272344 -0.266063 -0.141908 -0.609851 0.005153 -0.122628 0.066371 -0.529447 -0.230930 -0.143064 -0.259946 -0.046372 0.164168
好 -0.002116 -0.263869 0.347186 -0.591853 0.281781 0.120595 0.205060 -0.025129 -0.086877 0.325880 0.265769 -1.004510 0.348379 0.083057 0.071744 0.096487 0.217084 -0.722729 0.102721 -0.029640 -0.040377 0.114320 -0.027477 -0.626293 0.378183 0.242293 0.157386 -0.011905 -0.143041 0.268205 0.325237 0.179939 0.585375 0.300039 0.045063 -0.228132 -0.268045 -0.098230 -0.371727 -0.425695 -0.244770 -0.239560 -0.503195 -0.081079 -0.128878 -0.249923 0.300979 0.039232 -0.273182 -0.144429
美 0.184088 0.253701 0.165839 -0.562449 -0.033270 -0.247243 -0.371781 -0.346410 -0.154066 0.084377 0.480932 -0.316154 0.043453 -0.528633 0.418998 -0.266383 -0.068591 -0.072272 0.334100 -0.152732 -0.305520 -0.555077 0.300923 -0.266683 0.182903 0.614402 -0.261913 0.318339 0.218268 -0.061343 -0.084942 0.189207 -0.386859 -0.087508 0.105705 -0.356075 0.648972 0.351483 -0.457565 0.027441 -0.367131 -0.415754 -0.335275 0.301362 0.379233 -0.020988 0.461732 -0.167233 -0.046495 0.262573
８ 0.000352 0.713920 -0.233486 -0.079574 0.131539 -0.585869 -0.054714 -0.161839 -0.593139 0.328030 0.350682 -0.399937 -0.063879 -0.660442 0.787456 -0.345724 -0.301283 0.583702 -0.184560 0.341184 -0.595897 -0.438581 -0.095873 -0.441396 -0.522296 0.615991 -0.229977 -0.332108 -0.027859 0.471024 0.022196 0.432811 0.254252 -0.158081 0.205837 0.131553 0.475145 -0.176517 -0.582045 0.342292 -0.061228 -0.028245 -0.328285 -0.125888 -0.297974 -0.707492 0.015534 0.031731 -0.293136 0.057568
而 -0.046038 0.460256 0.130802 -0.160216 -0.102792 -0.093824 0.246173 -0.127826 0.130145 0.080961 -0.057796 0.188185 0.104674 0.088673 0.038127 -0.143917 0.411616 -0.206323 -0.335524 -0.002200 -0.371032 -0.134468 0.182605 -0.012194 0.182014 0.421308 0.353935 0.143147 -0.611673 0.305749 0.142671 0.028922 -0.281897 -0.071724 -0.223486 0.137457 0.438080 0.038217 -0.139292 -0.216043 -0.274814 -0.085207 -0.032827 -0.011040 0.304606 -0.060699 -0.095587 -0.550541 -0.025798 -0.005480
表 0.114960 0.368457 0.222439 -0.270659 0.075959 0.066585 -0.269813 -0.148507 0.101514 0.174702 0.480274 -0.008225 0.061440 -0.695874 -0.226294 0.212907 -0.140843 0.380131 -0.042435 -0.010610 -0.215344 0.061986 0.649061 -0.375338 -0.286102 0.787305 -0.103922 0.122701 -0.223646 -0.121420 -0.275121 0.271900 -0.258679 0.638805 0.480632 -0.405832 -0.133091 0.666640 -0.168543 0.135567 0.562432 -0.598173 0.280065 -0.234853 -0.079554 0.117545 -0.081275 -0.354399 0.083821 -0.412142
华 0.256941 0.307488 0.211640 -0.576666 -0.051763 -0.207861 -0.639143 -0.190550 0.312720 0.024211 0.711245 0.062780 -0.251993 -0.814256 0.318435 -0.361710 0.255028 0.142272 -0.236503 0.075399 -0.062062 0.196924 0.285766 0.232098 -0.801533 0.381432 0.022847 0.122820 0.041303 0.429260 1.140954 0.444342 -0.291263 0.675288 0.259531 -0.600479 -0.134577 0.350511 -1.034327 0.300803 0.127652 0.185753 -0.045439 -0.149097 0.234705 0.004898 0.371297 -0.265443 0.234344 -0.354938
目 -0.217527 0.590406 0.223814 0.160165 -0.214198 0.154914 0.402068 0.543144 0.047973 -0.278174 0.263507 -0.399427 -0.419444 0.204634 0.650693 -0.050623 0.134485 0.099618 0.261809 0.067718 -0.190915 -0.354921 -0.197233 -0.237013 -0.114575 0.630698 0.105508 -0.551620 -0.124736 0.045414 0.119805 0.199905 -0.292472 0.133866 -0.383278 -0.021009 0.129048 0.393776 -0.748048 -0.032016 0.000257 -0.570130 -0.112969 0.108584 -0.366978 -0.100245 0.060432 -0.514919 -0.070758 -0.290766
之 -0.160708 0.392486 -0.044216 -0.131151 0.190187 0.202244 0.583873 -0.125045 0.307041 -0.017344 0.079347 -0.462196 0.186098 -0.270241 0.068901 -0.217108 0.263683 -0.049605 -0.010810 -0.123385 -0.485783 -0.018929 -0.018802 -0.148088 0.207984 0.235232 0.225106 0.414151 -0.219811 0.144695 -0.205851 -0.168832 -0.343405 -0.230279 0.234838 -0.288078 0.167281 0.264593 -0.293550 0.053730 -0.263663 -0.206587 0.179971 -0.243152 -0.001513 -0.234576 0.130229 0.032325 0.038502 -0.099710
外 -0.036088 0.710872 -0.066050 -0.452186 -0.132664 -0.487032 0.018546 -0.383671 0.184595 -0.080269 0.266416 0.100914 0.125153 -0.266909 0.247233 0.084724 0.199440 -0.087286 0.480291 0.145279 -0.350886 -0.157581 0.193834 -0.424211 0.211800 0.088898 0.263291 -0.196437 -0.184053 0.272443 -0.150679 -0.009151 -0.186467 -0.156306 0.041300 -0.110349 0.731690 0.130930 -0.723166 0.131584 -0.202847 -0.071412 0.014457 -0.078739 0.043039 0.324251 0.505809 0.129334 0.378784 0.035827
京 0.023057 -0.154371 -0.068324 -0.630197 -0.128930 -0.560242 0.258768 0.215595 -0.035227 0.054334 0.557739 -0.122846 -0.014929 -0.483435 1.059850 -0.171188 -0.386986 -0.122050 0.150840 -0.578233 -0.013803 0.212841 0.209105 -0.418870 -1.138355 -0.032916 0.167628 0.132811 -0.272121 0.581292 0.325664 -0.120780 -1.170267 0.258019 0.709106 -0.414853 0.070963 0.320197 -0.359557 0.351976 -0.002863 -0.103458 -0.458746 0.136041 0.103428 -0.181337 -0.224921 -0.313567 0.535481 -0.966743
利 0.191987 0.354437 0.618723 0.078967 -0.442936 -0.664277 0.164203 0.166240 0.371823 0.040926 0.103727 -0.290934 0.116667 -0.249835 -0.111338 -0.051935 -0.265297 0.047437 0.504215 0.335590 -0.679316 0.110885 -0.046000 -0.444460 0.582951 0.553877 -0.143706 0.294525 -0.247227 0.482630 0.575596 -0.373772 -0.025803 0.322586 0.576323 -0.420797 0.164950 -0.204852 -0.577078 0.105892 -0.133049 0.156536 0.346024 -0.219032 0.126784 -0.351013 0.210772 0.084995 -0.527039 0.549108
子 -0.138437 0.139071 0.278524 -0.102958 0.213434 0.081376 0.099120 -0.709481 -0.386329 0.622099 -0.505449 0.056657 -0.050621 -0.133730 0.358043 -0.488258 0.124852 -0.133856 -0.165101 0.036502 -0.301766 0.606866 -0.239654 -0.205892 0.264483 0.171105 -0.257899 0.121923 -0.400334 0.255898 -0.100610 -0.140216 0.104892 0.443001 0.178164 -0.200550 -0.215740 -0.510427 -0.322699 0.267418 -0.159952 -0.245371 -0.375867 0.121450 -0.637530 -0.376915 -0.139981 -0.042658 0.490002 0.603398
资 -0.063353 0.246897 0.061869 0.197281 -0.666337 -0.280907 -0.185678 -0.194421 0.056515 -0.005851 0.504041 -0.448234 0.036513 0.196856 0.590096 -0.262960 -0.429932 -0.244428 0.145352 0.657168 -0.299771 -0.170387 -0.366797 -0.940276 0.099896 0.483942 0.162590 -0.371993 -0.698425 0.539482 0.283264 0.113125 -0.439483 -0.204720 -0.333964 -0.159934 0.403762 0.097761 -0.109535 -0.133100 0.000841 0.012468 -0.062697 -0.727828 0.339972 0.201862 0.974869 0.050187 0.255048 0.073308
设 0.165947 0.144717 0.014529 -0.504898 -0.842939 0.053404 0.182511 -0.200983 0.028432 0.273713 -0.066839 -0.553667 -0.577425 0.579351 -0.011251 -0.129314 -0.013566 -0.167336 -0.062667 0.477114 -0.476512 0.148457 -0.089147 -0.668380 -0.210356 0.409281 -0.336022 -0.453901 0.003609 0.232451 0.314534 -0.228269 -0.307984 0.366458 0.137889 -0.323994 0.287531 -0.310478 -0.468725 -0.227368 0.257391 -0.040552 0.384832 -0.219714 -0.631046 -0.646158 0.303792 0.088657 0.942762 -0.760902
北 -0.217137 0.189218 -0.162342 -0.611411 -0.340999 -0.906243 0.233465 0.251104 0.111961 0.200734 0.365880 -0.038223 0.221258 -0.626122 0.624280 -0.337389 -0.158523 0.345661 0.069341 -0.354716 0.005865 0.185328 0.282957 -0.095823 -0.718618 -0.004267 0.145410 0.019837 -0.034419 0.373359 0.698519 0.112626 -1.029075 0.105468 0.301278 -0.512003 0.123059 -0.009790 -0.272622 0.447320 -0.065975 0.131754 -0.603234 -0.282160 -0.138309 -0.235206 -0.168269 0.111816 0.221059 -0.682847
各 -0.693362 0.599876 -0.029557 -0.599742 0.178308 -0.395498 0.038793 -0.266973 0.051652 0.114388 0.699584 -0.167161 0.163743 0.412166 0.114854 -0.098924 0.386940 0.512121 0.433434 -0.043206 0.007749 -0.037873 -0.188435 -0.233176 0.055348 0.340358 -0.122757 -0.569737 -0.060011 0.040391 0.407724 0.028292 -0.020486 0.709778 -0.275881 -0.181622 0.331550 -0.348363 0.184394 0.101395 0.255710 -0.670174 -0.159288 -0.398090 -0.323821 -0.216390 0.243887 -0.110971 -0.303051 -0.352822
企 0.053230 0.095281 -0.048465 0.054327 -0.207408 0.017432 -0.610496 0.107005 -0.319126 0.307353 0.736912 -0.451414 -0.098333 0.306566 0.402885 0.459305 0.106849 0.175323 -0.154595 0.307523 -0.484468 -0.848101 0.171392 -0.964080 0.020775 -0.307028 0.247483 -0.010906 -0.454199 0.351418 0.501593 0.024301 -0.011093 0.182301 0.132256 0.314847 -0.152421 -0.494545 -0.543078 -0.293207 0.048731 -0.517221 -0.267657 -1.054978 0.422782 0.186529 0.026356 -0.404876 0.453585 -0.223772
６ 0.075894 0.562251 -0.220207 -0.113057 0.019891 -0.643879 -0.238752 -0.073971 -0.700137 0.558047 0.378525 -0.331689 -0.177702 -0.683276 0.670158 -0.186148 -0.288590 0.615978 -0.404776 0.336426 -0.831138 -0.341692 -0.209151 -0.211334 -0.489501 0.571346 -0.075942 -0.346835 -0.105548 0.335380 -0.054022 0.312838 0.160930 -0.059350 0.342074 -0.002205 0.614374 -0.142102 -0.466392 0.371476 -0.209469 -0.124356 -0.411363 -0.311156 -0.301766 -0.562995 0.352990 -0.002558 -0.305721 0.102370
总 -0.071788 -0.329955 -0.150427 -0.481377 -0.169102 -0.023231 0.150747 -0.210331 0.184744 -0.152463 0.491855 -0.098559 0.236532 -0.566200 0.146967 -0.138787 -0.959819 0.344285 0.046523 0.180557 -0.046562 -0.630689 0.012544 -0.544145 0.377148 0.999202 0.222371 0.187063 0.078401 0.339880 -0.010855 0.129423 0.397274 0.213324 0.297196 0.092366 -0.054434 0.130458 -1.228428 0.347361 -0.163980 -0.044191 0.067985 -0.166861 -0.215336 0.170273 0.318439 0.103698 0.330902 -0.012352
问 -0.100440 0.202371 -0.063806 -0.017861 -0.002838 0.060077 0.209442 0.043146 0.219157 -0.154935 0.510587 -0.278645 0.336562 -0.153086 0.473575 -0.098541 0.592576 -0.396832 0.023530 0.277758 0.644902 0.008354 0.774889 -0.172069 -0.418091 0.620448 -0.028356 0.436802 -0.398862 0.008292 -0.029709 0.274599 -0.172432 0.434622 0.278058 -0.232576 -0.354344 -0.830363 -0.524637 0.150806 0.263980 -0.526122 -0.166287 -0.532033 -0.219348 0.015621 0.173380 -0.207314 0.045372 0.189845
元 0.320917 0.766847 0.005444 0.302479 -0.445079 -0.209592 0.235478 -0.451718 -0.321298 0.959084 0.582675 -0.427016 -0.353343 -0.382226 0.679277 -0.267119 -0.221687 -0.210959 0.021516 0.151907 -0.029248 -1.134017 0.110747 0.136203 -0.203992 0.711001 -0.311418 0.259480 -0.191546 0.406396 -0.087479 0.468531 -0.116465 -0.577291 0.150090 -0.728050 0.570233 0.516844 -0.541960 0.237675 -0.474277 -0.272061 -0.129528 -0.439628 0.290349 -0.072599 -0.016620 0.136794 -0.380156 0.147701
其 -0.130413 0.251082 0.129926 0.346796 -0.262034 -0.154028 0.053756 -0.201892 0.080442 0.079094 0.370433 -0.161765 0.073872 0.318991 0.105904 -0.034303 0.016660 0.119791 -0.136150 -0.142228 0.075073 0.075565 0.129381 -0.612240 0.490118 0.523723 -0.087225 0.317156 0.020471 0.216971 -0.309887 0.108173 -0.211318 0.083584 -0.065675 0.007451 0.713865 0.158769 -0.670340 0.395950 0.027537 -0.303246 -0.267028 -0.227420 -0.218239 0.017351 0.045865 -0.252191 -0.124004 0.103809
小 -0.104838 -0.347031 0.154056 -0.314502 0.413465 -0.065476 0.173826 -0.038164 -0.229530 0.606279 -0.108767 0.344007 0.028539 0.475236 0.268632 -0.227233 0.162044 0.125415 -0.682225 0.331087 -0.406950 -0.246727 0.013633 -0.089150 0.056976 -0.014105 -0.107140 -0.170792 -0.131642 -0.316229 0.012979 -0.090586 0.091907 0.463063 0.294389 0.117773 -0.275970 0.373697 -0.906676 0.244875 0.037895 -0.189363 -0.963190 -0.256325 -0.105648 0.330304 0.397334 -0.428079 0.271429 0.169973
平 0.657141 -0.306459 0.418179 -0.393774 0.238653 0.106342 0.028252 0.453863 0.257985 0.326566 0.467063 0.271438 0.235993 0.367465 0.407370 -0.638746 -0.298901 -0.205654 -0.459147 -0.152262 -0.726485 -0.258945 -0.182130 0.003407 0.112362 0.567864 -0.201819 -0.702736 -0.062417 0.100328 0.497908 -0.222909 0.345803 0.295286 0.672751 -0.037429 0.335120 -0.207023 -0.725045 0.534556 -0.410245 -0.166314 0.026020 -0.112884 0.263618 0.033303 0.770135 -0.067988 -0.064975 0.115952
从 -0.167833 0.198546 -0.103273 -0.069379 0.018920 -0.156257 0.231561 -0.078495 -0.154975 0.132766 0.050319 0.127741 0.111634 -0.144426 0.134780 -0.165762 -0.267640 0.017487 -0.335115 -0.279971 -0.220194 0.069697 0.034668 -0.234427 -0.000476 0.316635 0.188584 0.020735 -0.114318 0.342023 0.031679 0.096643 0.073802 -0.044950 0.105310 -0.009815 0.211883 0.024001 -0.457740 0.137880 -0.098281 -0.039418 -0.299160 -0.286481 0.031995 -0.296661 0.000934 -0.455953 0.146261 -0.313481
术 0.267698 -0.045755 0.105388 -0.207822 0.216955 0.240927 -0.075782 -0.262929 0.077284 0.220108 0.568110 -0.438126 -0.728095 0.090043 0.317276 -0.250704 -0.048605 -0.295592 0.698492 0.257839 0.169794 -0.154908 0.532435 -0.129325 0.161587 0.481697 0.491396 -0.475536 -0.175566 0.974521 0.171776 -0.208223 -0.665724 0.871966 0.210034 0.108993 -0.015067 0.341000 0.087040 0.246214 0.136277 -0.304381 -0.372785 0.066889 -0.129953 -0.343549 0.148796 -0.684234 0.228609 -0.301614
活 -0.153231 -0.061549 0.419086 -0.277557 0.199648 0.326872 0.063033 0.264751 0.123922 0.195206 0.200779 -0.131347 0.640914 0.118029 0.572330 -0.388736 0.605907 -0.035218 -0.013890 0.402051 -0.382536 0.018791 0.381581 -0.752331 -0.333607 0.828013 -0.272800 -0.068433 0.085012 0.330942 -0.054702 -0.628840 0.126114 -0.032699 -0.341005 0.074281 -0.360652 0.110843 0.182043 0.384891 0.335891 0.087745 -0.395533 -0.650455 -0.217580 0.266678 -0.172418 -0.145687 -0.312543 -0.074997
委 -0.851060 -0.091264 0.592540 -0.645283 -0.403419 -0.007661 0.152502 -0.534741 0.361196 0.047385 0.269528 -0.137417 0.741729 -0.051599 0.502795 -0.041028 -0.563691 0.793987 0.381334 0.764644 -0.075485 -0.599222 -0.271962 -0.088873 -0.285584 0.023781 0.183290 -0.176983 0.052687 -0.484378 0.431021 -0.015143 -0.135760 0.598802 0.153432 -0.477677 0.060643 -0.322454 -0.691633 0.779633 0.024514 -0.607859 -0.244016 -0.563872 -0.037055 -0.452222 -0.425710 -0.236562 0.080779 -0.838429
将 -0.138358 0.748529 0.073281 0.062346 0.385806 0.043652 0.159859 -0.172738 -0.021227 0.066692 0.107908 -0.154070 0.446692 -0.328721 -0.151425 0.020313 0.070920 0.189612 0.044667 -0.002996 -0.083031 -0.102471 0.034485 -0.206550 -0.161744 0.540124 -0.054476 0.049366 -0.104655 0.176531 0.201801 -0.099090 -0.203827 0.094983 -0.005348 -0.077285 0.402568 0.125392 -0.329765 -0.060418 0.163530 -0.131859 -0.208965 -0.065632 0.071957 -0.244912 0.314746 -0.034110 0.221945 -0.345699
； 0.279944 0.105715 -0.287833 -0.119435 0.142629 -0.263892 -0.038046 -0.061545 -0.046944 0.196944 0.007348 0.017401 0.375592 0.386529 0.028374 -0.109122 -0.055300 0.150692 -0.011406 -0.060673 -0.163357 -0.183356 0.028856 -0.141115 0.373759 0.512807 -0.054078 0.003240 -0.253953 0.288365 0.090709 0.043480 -0.401054 -0.136717 0.078485 0.057723 0.200149 0.026192 -0.465405 -0.238125 -0.073141 -0.085478 -0.229955 -0.407687 -0.223822 -0.012354 0.046059 -0.253829 0.076745 -0.321089
代 0.021963 0.745422 0.033700 -0.520024 -0.175614 0.525848 -0.115753 -0.458703 0.081870 0.294972 0.512807 0.111589 -0.235791 -0.301027 -0.181365 -0.120396 -0.404803 0.317681 0.070009 0.013192 -0.533753 -0.294316 0.248023 -0.303861 -0.302943 0.333795 -0.295707 0.324410 -0.178653 0.293303 -0.317264 0.008263 -0.499629 0.541181 0.624850 -0.080471 -0.401739 0.448652 -0.045709 0.157061 0.429666 -0.337176 0.547611 -0.489526 0.123208 -0.269490 -0.089840 -0.512298 0.533145 -0.328553
强 0.132564 -0.160807 0.003332 -0.271006 0.281281 -0.330092 0.774105 -0.471423 0.135081 -0.083617 -0.148915 0.083461 -0.251315 -0.323823 -0.186014 0.292907 0.129439 0.003804 0.302145 0.478362 -0.417075 -0.463046 0.335481 -0.400743 0.092114 0.600571 -0.429702 -0.271795 0.262049 0.381476 0.305987 0.203377 -0.149883 0.533809 -0.263125 -0.361360 0.248346 -0.231312 0.039117 -0.200604 0.141789 -0.858471 0.002327 -0.732085 0.283398 -0.138333 -0.068778 -0.121118 0.175875 -0.269573
提 0.494921 0.344888 0.284134 -0.120372 -0.191090 0.112293 0.323478 0.054593 0.130631 0.423270 -0.138363 -0.081440 -0.157440 0.140442 0.020584 0.192966 -0.101534 0.008313 0.606538 0.306216 0.193961 -0.304743 0.087722 -0.477622 -0.030683 0.852640 -0.200831 -0.816823 -0.456921 0.505095 0.376609 0.313216 0.312423 0.515640 0.236659 -0.363818 0.173455 -0.189324 -0.222051 0.590415 0.083856 0.001858 -0.202383 0.055101 -0.041003 0.147525 0.046588 -0.131105 0.063099 -0.521165
十 -0.070490 0.169088 -0.438749 -0.886879 0.052610 0.661333 0.404783 0.274244 0.187936 0.377584 0.676390 0.125584 -0.128998 0.133512 0.036396 0.081757 -0.147627 0.459782 0.053255 0.025792 -0.661178 -0.144609 -0.621467 -0.143855 -0.144390 -0.012951 -0.271090 0.603779 -0.374853 0.226314 -0.065775 -0.046954 -0.186300 -0.113292 0.583531 -0.846585 -0.097551 0.181023 -0.318683 0.122972 0.068238 -0.562683 -0.889471 -0.509668 -0.484740 -0.604912 -0.086972 0.390523 -0.472183 -0.263636
金 -0.602880 0.518607 0.099952 0.357050 -0.426660 -0.441948 -0.066050 -0.504741 0.080935 -0.360277 0.085102 -0.311971 -0.114096 0.222554 0.522508 -0.346709 -0.260757 -0.166202 -0.038813 0.620984 0.198671 -0.147236 -0.501501 -0.689124 -0.138955 0.639648 -0.263240 0.158407 -0.399769 0.463313 0.184589 0.336991 -0.226013 0.246870 0.023556 -0.414108 0.124479 0.242918 -0.159765 -0.015479 -0.410591 0.058016 -0.412695 -0.554221 0.137748 0.094382 0.483021 0.035040 0.633964 0.200818
着 -0.213615 -0.010533 -0.127616 0.129447 -0.071421 0.102134 -0.128491 -0.195389 0.051159 0.454862 -0.353824 0.502999 0.580866 -0.034037 -0.262869 -0.439371 0.769291 -0.201006 -0.030405 0.085013 -0.341989 0.325208 0.220301 0.034604 0.202937 0.326714 0.000236 -0.007887 -0.042187 -0.041902 0.337851 0.186448 -0.055836 0.266466 0.145642 -0.036947 0.173423 0.161806 -0.230882 -0.496591 -0.085638 -0.528042 -0.397288 -0.088096 -0.308781 -0.283628 0.112480 -0.517619 0.175064 -0.274886
农 -0.018219 -0.224705 0.151665 0.060219 -0.143264 0.170610 0.236256 -0.400617 -0.084994 0.565880 0.302956 -0.014533 0.030446 0.274880 0.265998 -0.123009 0.471453 0.468686 0.472869 -0.151271 -0.154513 -0.829308 0.168567 -1.107101 -0.174086 -0.091484 0.242463 -0.160150 -0.290109 0.638419 0.604481 0.305867 0.067000 0.215330 0.171194 -0.358068 -0.144885 -0.560873 -0.197689 0.354771 0.355681 0.161653 -0.359224 -0.524311 0.169606 -0.299097 0.249730 -0.310404 0.145146 -0.000566
两 0.123254 0.733277 0.180172 -0.528773 0.316128 -0.245305 0.154591 -0.088658 0.179633 0.157233 0.069576 -0.315821 0.215723 -0.109712 0.147144 -0.227137 0.400402 0.006693 0.006842 -0.208194 -0.229165 -0.181277 -0.123114 -0.630952 0.049664 0.169833 -0.102950 0.144523 0.096562 -0.515649 -0.112361 0.163101 0.223899 0.262414 0.299774 -0.405690 0.050666 -0.251603 -0.111046 0.061453 -0.403873 -0.611368 -0.362691 -0.159722 -0.175507 -0.401043 0.502035 -0.037328 0.154430 0.328827
心 0.079662 -0.179634 -0.081330 -0.283741 -0.082002 0.380218 0.192248 -0.246734 0.177402 0.161033 -0.219359 0.125279 -0.157919 -0.267817 0.317588 -0.819296 0.130440 -0.101417 0.015631 0.456461 0.067342 0.260087 0.419761 -0.498119 -0.012919 0.324925 -0.220053 -0.071533 -0.207317 -0.367595 0.104389 -0.175709 0.343323 0.307814 0.080515 -0.062347 -0.079897 0.059648 -0.505852 -0.136629 -0.386718 -0.492035 -0.341038 -0.416455 0.015478 0.349837 -0.135113 -0.259048 -0.214690 -0.479212
种 -0.214511 0.469603 0.081549 0.098963 -0.051419 0.153895 -0.205328 0.025774 -0.046874 0.646491 0.333472 -0.143031 0.383660 0.334812 0.189887 -0.539840 0.177576 -0.518453 -0.160856 0.054820 0.194343 -0.068336 0.164258 -0.172763 0.541426 0.675095 0.126789 -0.073281 -0.019696 0.359065 -0.055545 0.284405 -0.424416 -0.276447 -0.547471 -0.469013 0.116214 -0.142847 0.399855 0.414614 0.119782 -0.141606 -0.087255 -0.559983 -0.147926 -0.078094 -0.258116 -0.849333 -0.054363 -0.037589
明 0.212822 0.002541 0.506521 -0.461865 -0.035590 0.116869 -0.220917 -0.081692 0.108608 -0.128341 -0.124786 -0.423546 -0.419206 -0.429826 -0.569664 0.103880 -0.137841 0.271274 -0.159803 0.306998 -0.393270 0.353279 0.110804 -0.160657 -0.332951 0.672835 0.185086 -0.502589 -0.076848 0.144108 0.098671 0.411685 0.078235 0.051025 -0.238377 -0.646634 0.398399 0.256929 -0.099391 0.080021 -0.018030 -0.532828 -0.001711 -0.377422 -0.587143 0.049842 -0.082103 -0.411999 0.270838 -0.250704
道 -0.185865 0.088224 0.190760 -0.557632 -0.018468 -0.729312 0.066132 0.189902 0.485093 0.172084 -0.064175 0.195882 -0.182059 -0.436758 -0.029013 -0.078963 -0.227820 -0.712460 0.170071 0.000269 -0.189628 0.154285 0.455159 0.011956 -0.078007 0.230475 -0.413193 -0.528226 -0.071407 0.034230 0.235069 -0.286359 0.050312 -0.551190 -0.145466 -0.568593 -0.200033 -0.130486 -0.570304 0.335341 -0.173698 -0.326298 -0.315050 -0.768007 -0.121331 -0.673097 -0.304160 -0.436127 0.487795 0.036729
万 0.162903 0.577302 -0.383164 0.122585 -0.243657 -0.025103 -0.189694 -0.117629 -0.571766 1.104277 0.722599 -0.179004 -0.074109 -0.485090 0.628209 -0.441420 -0.111131 0.278233 -0.012242 0.255175 -0.313081 -0.705793 -0.258137 0.058326 -0.106115 0.646505 -0.255945 -0.180779 -0.656761 0.226276 -0.072255 0.440639 -0.030548 -0.252630 -0.027553 -0.459218 0.214140 0.039276 -0.398615 0.306879 -0.335209 -0.020076 -0.259421 -0.603277 -0.384853 0.134125 -0.179007 0.323463 -0.493152 -0.053493
品 0.106232 -0.020595 0.202141 -0.372206 0.233918 0.252219 -0.325202 -0.562057 -0.083836 0.412750 0.425949 0.228161 -0.255900 0.528088 0.613247 -0.323388 0.179990 0.052556 0.463541 0.508915 -0.008204 -0.122721 0.013914 -0.380717 0.268962 0.888728 0.361204 0.311956 -0.358054 0.758243 0.283730 0.309403 -0.118843 -0.245287 -0.083206 -0.168137 0.083461 -0.186201 -0.034829 0.401488 0.446539 -0.159330 0.033146 0.324742 -0.397539 0.221887 0.163410 -0.561803 0.564052 0.335012
可 -0.137363 0.422826 0.003816 -0.238247 -0.051829 0.615328 0.527608 -0.019428 -0.120680 0.089065 -0.081172 -0.446004 0.517138 -0.089051 0.136224 0.088341 -0.254972 -0.069778 -0.074128 -0.133799 -0.064039 0.053429 0.039405 -0.192658 0.566750 0.431346 -0.165139 -0.145611 -0.513162 0.555948 0.155347 -0.064914 -0.403162 0.102221 0.189643 0.068250 0.063524 0.069600 -0.190732 -0.144573 -0.088401 -0.046659 -0.185177 -0.284068 0.215363 0.205902 -0.285283 -0.127766 -0.222105 0.494041
系 0.163110 0.599505 0.047276 -0.125058 -0.371703 -0.021905 0.153807 -0.054997 0.443746 0.294974 0.120509 -0.675380 0.197299 -0.117723 0.139886 0.030439 0.284983 -0.254545 0.263640 0.320049 0.144452 -0.216160 0.226930 -0.755606 0.660563 0.827710 -0.013144 0.061484 1.012853 -0.305602 0.294729 -0.227084 -0.227977 0.640286 0.365007 -0.027129 -0.398062 0.069999 -0.509122 -0.054853 -0.208411 -0.371402 -0.436024 -0.020874 -0.048605 -0.085748 0.220697 -0.371673 0.129487 -0.124955
世 0.142586 0.365637 0.221094 -0.065180 0.573816 0.274508 -0.020393 0.161170 0.351542 -0.320340 0.916604 -0.097670 -0.008488 -0.065816 0.568966 0.105114 0.048485 -0.359370 -0.312943 -0.512182 -1.043050 -0.209580 -0.318677 -0.028601 -0.079919 0.419401 -0.682600 0.193964 0.084071 0.294561 0.596240 0.030746 -0.458881 0.416726 -0.004889 -0.048453 -0.262991 0.110021 -0.193336 0.808312 -0.274540 -0.491787 -0.130756 -0.204311 -0.175584 -0.502632 0.208337 -0.352905 -0.044719 -0.450237
（ 0.308558 -0.376275 0.018258 -0.232416 -0.011363 -0.653215 -0.551967 -0.192090 0.351838 0.078948 -0.342414 -0.362071 0.142946 -0.259270 0.530884 -0.300041 -0.101965 0.180537 -0.106223 0.038993 -0.334763 -0.066092 -0.248972 0.221703 -0.402261 0.791774 -0.090867 0.027838 -0.077833 0.403495 0.492279 0.563786 -0.441697 0.077228 0.091871 -0.037496 0.065486 0.440872 -1.186481 0.031546 0.400462 -0.116527 -0.730650 -0.467741 -0.363943 -0.396512 -0.338848 -0.104095 0.073979 0.275115
） 0.365813 -0.369721 0.124434 -0.073195 -0.083710 -0.466493 -0.530936 -0.513867 0.564019 0.032892 -0.077684 -0.241333 0.139179 -0.237467 0.093486 -0.490666 -0.207790 0.464311 0.052822 0.018899 -0.472718 -0.385122 -0.041556 0.260609 -0.175899 0.760896 -0.050984 0.061697 0.262565 0.175991 0.505583 0.495140 -0.441415 0.144968 0.021351 -0.030350 0.039061 0.476864 -1.218190 -0.056858 0.048816 -0.293094 -0.574703 -0.429764 -0.253925 -0.489495 -0.250654 -0.210238 0.108741 0.064138
队 0.032928 -0.230137 -0.231075 -0.094408 -0.167395 -0.701801 0.647986 -0.130557 0.023171 0.227127 0.047380 -0.278030 0.203292 0.025163 -0.167643 -0.068546 -0.118340 -0.012202 0.661330 -0.131019 -0.721190 -0.242363 0.372300 -0.474805 -0.255244 0.442066 -0.661361 0.380638 -0.347814 -0.036067 0.117885 -0.223178 -0.325053 0.766341 -0.121966 0.006879 0.233188 0.231737 -0.398596 0.457475 -0.523279 -0.567470 -0.093332 0.320323 -0.229975 -0.096100 0.032345 0.468579 0.641870 -0.527442
科 0.227244 -0.292805 0.176413 -0.386103 0.246443 0.150095 -0.153480 -0.184118 -0.153736 0.050656 0.181246 -0.339211 -0.204944 -0.293083 -0.169901 -0.208898 -0.006266 0.070155 0.707283 0.289862 -0.145361 -0.401360 0.289307 -0.446656 0.142460 -0.101245 0.101913 -0.425808 -0.146191 0.466959 0.187779 -0.335105 -0.705149 0.625934 0.329889 -0.045782 0.170343 -0.463945 -0.515869 0.800791 0.298273 0.002285 -0.613904 -0.107505 -0.059501 -0.476238 0.388720 -0.595124 0.009245 -0.428882
通 0.319690 0.394807 -0.306341 -0.729326 0.399684 -0.303106 0.023581 -0.154918 -0.066825 0.293829 0.258197 -0.432693 0.017311 0.066345 -0.091235 0.051959 0.197338 0.198832 0.257918 0.320314 0.410349 0.669863 0.385733 -0.698712 -0.089211 0.173389 -0.211428 -0.645621 0.058894 0.462726 0.057391 -0.378857 -0.045263 -0.514148 0.273014 -0.235153 0.093220 -0.137221 -0.386013 0.428669 -0.047152 -0.833297 0.160849 -0.387634 0.046886 -0.512153 -0.123812 -0.025194 0.355961 0.335337
今 -0.545116 0.404819 0.347081 -0.207273 0.372339 -0.042333 0.563242 0.230132 0.065215 -0.229671 0.265262 -0.061746 0.275718 -0.892396 -0.130910 -0.350984 -0.363695 0.132465 0.102267 0.336710 -0.278838 -0.419801 -0.012387 -0.353222 -0.436843 0.156253 0.417491 -0.029393 -0.360490 0.209644 -0.082023 0.354710 0.217192 -0.184296 0.311417 -0.649044 0.368934 0.094198 -0.449882 0.113346 0.078640 0.009330 -0.074917 0.025946 -0.137017 -0.309498 0.176185 -0.220926 0.248068 -0.400096
? 0.323646 0.001232 -0.124469 0.024581 0.200579 -1.007246 -0.516063 0.097780 -0.042253 0.443215 0.094391 -0.555407 0.041103 -0.377178 -0.120193 -0.206396 -0.389536 0.556644 -0.304115 -0.068318 -0.196865 -0.445153 0.410965 -0.261054 0.601473 0.358762 -0.757188 -0.398953 0.216301 0.846873 0.005663 0.179107 -0.279703 -0.191214 0.587516 -0.044784 0.032647 0.534901 -0.962779 0.228783 0.134033 -0.180054 -0.659171 -0.482833 -0.274076 0.364147 -0.508648 -0.366685 -0.184420 0.010927
当 -0.439970 0.237054 -0.048687 -0.149427 0.103702 0.175931 0.285521 -0.250888 -0.135830 -0.049935 0.041810 -0.070627 0.157745 0.016837 -0.158009 0.131658 -0.061383 -0.063296 -0.098465 -0.252671 -0.258484 -0.014614 0.056076 -0.040778 -0.181570 0.462946 0.250025 0.044583 -0.472030 0.128230 0.206410 0.041718 -0.024856 0.288586 0.498843 -0.273966 0.140651 0.128181 -0.501645 0.055122 0.368291 -0.337267 0.148995 -0.264276 0.095840 -0.009032 0.202225 -0.248521 -0.045593 -0.095183
度 0.412931 -0.006877 0.068330 0.244991 0.319365 0.411946 0.090932 -0.241397 0.570645 0.137041 0.241980 -0.179328 0.068126 0.198466 0.303753 -0.182378 -0.099586 0.204767 -0.727048 0.568106 -0.013962 -0.299793 0.373523 -0.540384 0.348565 0.477836 -0.310421 -0.626177 -0.050758 0.835702 0.149789 -0.185287 -0.107562 -0.129520 0.218449 -0.347435 0.073810 -0.389032 -0.098727 -0.307961 -0.328708 -0.264365 -0.311164 -0.196423 0.348018 -0.014248 -0.070082 -0.091357 0.033173 -0.794653
技 0.424157 0.094607 0.111098 -0.025953 0.337437 0.099931 -0.265913 -0.148174 -0.068620 0.206505 0.363124 -0.059086 -0.549289 0.091313 -0.043285 -0.214475 -0.014337 -0.228973 0.810837 0.535433 0.100538 -0.421853 0.223744 -0.531429 0.238319 0.285302 0.509146 -0.894883 -0.239746 0.803313 0.636897 -0.341605 -0.591075 0.721112 0.026153 0.025908 -0.118258 -0.186503 -0.177049 0.628085 0.305136 -0.368560 -0.523650 -0.071334 -0.064218 -0.428764 0.298285 -0.664960 0.218682 -0.386846
所 -0.098159 0.293972 -0.175964 -0.271154 -0.258613 0.310125 0.200259 -0.098592 -0.188007 0.272570 0.172764 -0.677099 -0.025632 -0.467474 0.004123 0.067082 -0.216697 0.039796 0.387254 -0.046055 0.094576 0.250325 0.364480 -0.315815 0.345055 0.072592 0.198592 -0.314407 -0.248700 0.044384 -0.108050 0.047124 -0.429222 0.080576 0.379972 0.148053 0.298486 0.067198 -0.316004 0.277582 -0.449296 0.052239 0.045506 -0.419192 -0.357704 0.265112 -0.041409 -0.555012 0.167941 -0.310181
都 -0.585460 0.209912 -0.064729 -0.397160 -0.080767 0.129257 0.260499 0.051847 -0.044913 0.435155 0.002957 -0.206872 0.218594 -0.014720 0.084346 0.238335 0.199247 0.288047 0.056525 -0.358161 -0.181546 0.000212 0.158753 -0.106194 0.140208 0.252556 -0.187563 0.006415 -0.281099 0.235460 0.297024 -0.045849 -0.114676 0.393286 0.100651 -0.274728 0.121812 0.213432 -0.200309 0.219209 0.155246 0.173091 -0.159057 -0.152304 -0.227828 0.082332 -0.162552 -0.480152 0.207215 0.145595
军 -0.101132 0.040062 0.160229 -0.161908 0.011507 -0.317561 0.180117 -0.386647 0.099760 0.059814 0.153854 -0.251902 0.078546 0.105404 0.109839 -0.320615 -0.086830 0.029309 0.206464 -0.275057 -0.805881 -0.248780 0.062890 -0.498142 -0.425820 0.598411 0.045112 0.169628 -0.274052 -0.496848 -0.189620 -0.206886 -0.418146 0.721297 -0.056681 0.005901 -0.562313 -0.121908 -0.964477 0.431931 -0.373333 -0.214633 0.020420 -0.041989 -0.049376 -0.067135 -0.022377 0.375963 0.196187 -0.999182
内 -0.521494 0.205568 -0.265468 -0.870137 -0.121781 -0.360189 0.039455 0.031941 0.084099 -0.132500 0.385269 -0.137637 0.228742 0.055877 0.424578 -0.293176 0.005345 0.104300 -0.136261 0.119061 -0.549051 -0.141197 0.121191 -0.468372 0.177692 0.254915 -0.031541 0.026522 0.156512 0.328136 -0.118102 -0.347376 -0.340585 0.029235 0.096128 -0.219386 0.414855 -0.089120 -0.593265 -0.139643 0.002152 0.261073 0.052534 0.073465 -0.221222 0.342566 0.365096 -0.068897 0.335089 -0.013885
去 -0.016083 0.385723 -0.074196 -0.129270 0.204260 -0.054371 0.336095 0.002783 -0.410236 0.125284 0.127884 0.076291 0.153700 -0.447724 0.239435 -0.177351 0.038183 0.168023 -0.351000 -0.150335 -0.002092 -0.103135 0.248745 -0.205258 -0.272928 0.073487 -0.217539 0.191743 -0.206938 0.616385 0.076910 0.034381 0.684425 -0.166329 0.099274 -0.238181 0.132314 -0.102514 -0.438839 0.226107 -0.054276 -0.270567 -0.568240 -0.196771 -0.020785 -0.431617 0.259729 -0.287584 0.217929 0.067862
剧 0.049088 -0.192819 0.615715 -0.451201 0.131562 0.249949 0.611789 0.175358 0.049099 -0.225906 0.869051 -0.536447 -0.685119 0.009165 0.924553 -0.104027 -0.013942 -0.055338 0.497301 -0.580852 -0.016089 0.036448 0.149095 -0.494499 -0.472713 0.031011 0.273147 0.140698 -0.206899 0.667293 -0.445772 0.161028 -0.818316 0.550314 0.661213 0.068638 -0.109582 0.800274 -0.321385 -0.047330 -0.215305 -0.743448 -0.360403 0.030987 0.015402 0.019036 -0.421264 -0.584480 0.030756 -0.512480
里 -0.281504 0.277097 -0.148442 -0.277286 0.081442 0.116797 -0.069797 -0.266581 -0.158071 0.582362 0.159381 0.138782 0.400909 -0.555836 0.120249 -0.486684 0.147312 -0.119621 -0.504542 -0.264551 -0.142239 -0.151438 0.540526 0.004680 0.294643 -0.207914 -0.066987 -0.099233 0.060285 0.305168 0.038872 -0.277220 0.150682 0.182651 0.385015 -0.666143 0.120132 0.034457 -0.557091 0.026479 0.116311 0.085824 -0.364753 -0.187506 -0.547440 0.183665 0.008042 -0.077533 0.092679 0.005376
些 -0.397532 0.441902 0.043821 -0.052038 -0.151579 -0.105554 0.085349 -0.017692 0.050587 0.156303 0.197022 0.046888 0.128381 0.074433 0.195238 0.108694 0.188182 -0.328547 -0.232514 -0.033796 -0.195028 -0.017702 0.335888 -0.228862 0.156554 0.018795 0.425464 0.181259 -0.496929 0.087883 -0.053493 0.116242 -0.193325 0.168260 0.087894 -0.600790 -0.401448 -0.279799 -0.267780 0.033622 0.099093 -0.071525 -0.340499 -0.442200 0.000200 0.365995 0.184189 -0.973828 0.001117 0.018975
位 0.020338 0.477827 0.036757 -0.256916 -0.341584 -0.587344 0.017513 0.076006 0.168597 0.365653 0.298611 -0.396750 0.436671 0.050956 0.088320 0.172405 0.476883 -0.031079 0.138693 -0.086896 -0.326126 -0.268022 -0.130861 0.267990 0.299109 0.048362 0.136810 0.142199 -0.624629 -0.068114 0.329682 -0.021217 0.031308 0.036837 0.279160 -0.092295 -0.223393 -0.197396 -0.247851 0.599893 0.147480 -0.382139 -0.265059 0.052511 -0.114528 -0.000049 0.160014 -0.459433 0.358489 -0.461574
水 0.435778 -0.206610 -0.197769 0.013974 0.115725 -0.212514 0.283094 0.422324 0.271680 0.294075 -0.093661 0.154957 0.181084 0.461890 -0.311546 -0.744074 0.217548 -0.173752 -0.049899 0.543411 -0.645889 -0.120655 -0.032612 -0.370923 0.184507 0.319865 0.248429 -0.495954 -0.428100 0.618289 0.598224 0.065947 -0.204433 0.242243 0.166365 0.132037 -0.046289 -0.185069 -0.592323 0.592320 -0.478689 -0.040265 0.010352 0.137320 -0.130989 0.055624 0.440787 0.091599 -0.061915 0.118318
改 0.462162 0.395547 -0.072059 -0.520631 -0.149053 0.434462 0.075341 0.567590 -0.187816 -0.164849 0.397009 -0.460136 -0.318585 0.083433 -0.109742 -0.400449 0.198759 -0.214902 0.058215 0.109943 -0.099271 -0.677570 0.220654 -0.934612 0.107158 0.185939 0.284883 -0.317004 0.106856 0.277149 0.428194 -0.300788 -0.294647 0.008047 0.057401 0.156320 0.173827 -0.541545 -0.391448 -0.530699 -0.229553 -0.229406 -0.473590 -0.512163 0.374807 -0.257979 -0.059872 -0.111131 0.744446 -0.617418
导 -0.542592 -0.239471 0.172799 -0.324990 0.032628 -0.370988 0.161947 0.004475 0.302836 0.770719 0.623482 -0.100337 -0.176106 0.458153 0.041339 -0.031555 0.056232 0.310742 0.052625 0.347101 0.379459 0.171465 -0.059701 -0.133617 0.539510 0.479339 0.318473 -0.071272 -0.557953 -0.226588 -0.217311 -0.298268 0.161309 0.644740 0.166154 0.141379 0.112717 0.125809 -0.303645 0.587619 0.020990 -0.939346 -0.569081 -0.256903 0.640323 -0.049251 0.115893 -0.116951 0.284526 -0.522136
起 -0.072585 0.121067 0.296097 -0.257973 0.291158 -0.075511 0.211234 -0.211129 -0.431065 0.680546 0.047412 0.348412 0.442156 -0.047448 0.184245 -0.044190 0.446520 -0.199446 -0.401771 -0.207794 -0.330527 0.452788 0.060954 -0.382936 -0.018106 0.080322 -0.146557 -0.088457 -0.108089 -0.032075 0.236216 0.191427 -0.348442 -0.002100 -0.017588 -0.018672 0.473374 0.045425 -0.043065 -0.136623 0.199222 -0.025744 -0.561929 -0.117826 0.218655 -0.320791 0.233299 -0.102342 0.121772 -0.470533
入 0.578637 0.525010 -0.350272 0.230877 -0.373290 0.021204 0.314973 -0.008770 -0.179712 0.049249 0.436404 0.193296 0.461054 -0.285723 0.140616 -0.040408 0.283226 0.147067 0.421052 0.598690 -0.402846 -0.359019 0.166402 -0.226926 -0.133324 0.301012 -0.187589 -0.202132 0.007701 0.453706 -0.021447 -0.057621 -0.091522 0.212616 0.196608 0.007879 0.140835 0.044411 -0.052329 -0.032482 -0.431213 0.328171 -0.518727 -0.833668 -0.226946 -0.191926 0.501548 -0.358418 0.303260 -0.250661
使 0.018093 0.606576 0.165860 -0.069893 0.106091 0.018787 0.104506 -0.094932 0.389565 0.396472 0.226793 0.044342 0.017480 -0.104611 -0.056453 -0.076739 -0.141324 -0.031615 0.134673 0.230156 -0.082065 0.130190 0.312921 -0.093475 0.069409 0.332744 0.052317 0.188960 -0.497015 0.361717 0.343423 -0.429027 -0.337581 0.288734 -0.356050 -0.087924 0.333804 0.136913 -0.328666 0.085095 -0.082529 0.310574 -0.086089 -0.271895 0.076508 -0.060837 0.032780 -0.237966 0.112125 -0.070022
最 -0.144123 0.341516 0.104096 0.114787 0.249723 0.196919 0.117034 0.040405 0.222656 0.011855 0.624278 -0.418311 0.069331 0.133587 -0.239263 0.101862 -0.089666 0.213560 -0.168787 0.478329 -0.357068 -0.083091 0.375334 -0.304899 0.098937 0.663631 -0.173334 0.140655 -0.425590 0.315399 0.510323 0.126608 0.183972 -0.011183 0.120286 -0.208002 -0.121885 0.126634 -0.157966 0.067934 -0.564426 0.086035 -0.312161 0.468503 0.118258 -0.428502 0.148448 -0.260913 -0.149008 -0.029595
已 -0.457186 0.355342 -0.083172 -0.112725 0.001510 0.305041 -0.084562 0.008479 -0.539582 0.233728 0.250729 -0.277094 0.442040 -0.085000 -0.008020 -0.038877 -0.191777 0.422825 -0.130625 -0.036674 -0.190149 -0.068522 0.067636 -0.235727 -0.177711 0.449069 0.084325 -0.103147 -0.204751 0.320988 0.021858 -0.042677 -0.170352 -0.116478 -0.092363 -0.198519 0.041421 0.310776 -0.134269 0.005249 -0.449815 0.025502 0.046018 -0.219850 -0.140716 -0.415347 0.339287 -0.382951 0.271810 -0.240395
育 -0.427316 -0.260312 0.342620 -0.246842 -0.019236 0.119521 0.289058 0.343858 -0.038605 -0.096311 0.114118 -0.191711 -0.344921 -0.141242 0.555061 -0.341867 0.455771 -0.090115 0.614750 0.141373 -0.596457 -0.470103 -0.247237 -0.893764 0.391334 0.380481 0.156968 -0.756319 0.005516 0.394516 0.100678 -0.740878 -0.147041 0.237120 0.070861 0.048868 0.205127 -0.118583 -0.184919 0.516836 0.392148 -0.098392 0.311007 -0.571578 0.025046 -0.546434 -0.410730 -0.895700 0.255549 -0.355331
正 -0.052808 0.291486 0.448222 -0.503680 0.175347 0.206172 0.322066 -0.145215 -0.017304 -0.187259 -0.048765 -0.037652 0.450373 0.035180 0.211011 -0.146264 -0.084163 -0.230288 -0.151866 0.002137 -0.232049 -0.116605 0.218898 0.036353 -0.022165 0.291827 0.578504 0.012874 -0.205094 -0.194714 0.116946 -0.254204 0.004190 0.302413 0.028108 -0.088433 0.576624 -0.099059 -0.218780 -0.065853 0.250449 -0.199617 -0.175673 -0.662219 -0.337968 -0.371098 -0.024690 0.194663 -0.078673 -0.319452
特 -0.684085 0.370335 0.410406 -0.216979 0.049032 -0.535198 -0.297630 -0.064863 0.069721 0.327671 0.230587 -0.568110 0.060461 0.492975 0.090376 -0.193086 -0.108188 0.393082 -0.070422 0.729644 -0.612745 0.032947 0.608697 -0.054464 0.053066 0.346837 -0.332049 0.528410 0.139160 -0.059439 0.198815 0.132551 -0.178218 0.367564 0.154932 -0.652370 -0.116977 -0.281199 -0.485093 0.176626 0.810664 -0.046442 0.068174 -0.377949 -0.077071 -0.265371 -0.163806 -0.359719 -0.247170 -0.019819
题 0.051883 0.339607 0.293286 -0.019450 -0.014112 0.152369 0.239620 0.290922 0.362010 -0.072399 0.642733 -0.317988 0.184926 0.025118 0.391515 -0.146751 0.426129 -0.465348 0.194083 0.402267 0.551783 -0.100801 0.472878 -0.065478 -0.291209 0.520217 -0.168005 0.424638 -0.311467 0.103909 -0.143063 0.511891 -0.494550 0.387407 0.556300 -0.108834 -0.137296 -0.987497 -0.210251 0.103754 0.130240 -0.486350 -0.352413 -0.424229 -0.163233 0.102330 -0.108206 -0.510744 0.181755 0.002165
向 -0.015624 0.383485 -0.047242 -0.136933 0.161489 0.103722 -0.140965 0.190499 0.295202 0.152872 0.255102 0.192423 0.175299 -0.097803 0.101108 0.172274 0.201088 0.230006 0.272571 -0.382168 0.080437 0.115428 0.180555 -0.125451 -0.244656 0.589839 0.103273 -0.042771 -0.093800 0.022935 0.163258 -0.174236 0.063133 0.378157 -0.089235 -0.185501 0.384485 0.328491 -0.491455 0.214601 -0.302902 -0.279955 -0.067388 -0.662812 -0.135003 -0.187383 0.219032 -0.156139 0.398878 -0.355043
次 0.252494 0.530264 0.042318 0.250258 0.369017 -0.363295 0.369840 0.067101 -0.174085 0.330407 0.761407 0.003817 0.553316 -0.107338 -0.002991 0.209992 -0.034639 0.001605 -0.078040 0.216041 0.306200 -0.494603 0.080290 -0.298949 -0.104429 0.627602 -0.403249 0.334730 -0.210430 -0.096678 -0.073076 -0.029256 -0.274635 -0.041753 0.206402 -0.507897 -0.162322 0.448094 -0.105777 0.418994 -0.096260 -0.414699 -0.449667 -0.105818 -0.375860 0.210374 -0.205642 -0.324296 -0.070605 -0.425441
名 0.153040 0.393423 0.093104 -0.075304 -0.037866 -0.535456 -0.290124 -0.176379 0.048886 0.370219 0.643024 -0.485761 0.437780 -0.307194 0.208417 -0.113243 -0.038023 0.365650 0.299485 0.188972 -0.774106 -0.254209 -0.017286 0.118162 0.349102 0.162677 -0.153558 0.280319 -0.772612 0.025515 -0.323806 -0.068951 -0.430409 -0.076667 -0.149797 -0.173868 -0.285393 0.218695 -0.193468 0.741308 0.044387 -0.153433 -0.386258 0.107988 -0.159811 0.028962 -0.156357 -0.305924 0.073069 -0.532347
还 -0.439948 0.433917 0.153383 -0.248560 -0.069819 -0.048324 0.290093 -0.059153 -0.153302 0.185372 -0.074405 0.046533 0.324576 -0.107380 -0.240033 0.059990 0.088830 -0.132275 0.192330 0.243300 -0.146327 0.061362 -0.034184 -0.098387 0.143230 0.438450 0.068893 -0.137681 -0.363867 0.065149 -0.195051 0.066111 0.245729 0.071312 0.139681 -0.306024 0.306406 -0.000088 -0.407897 -0.149399 -0.034282 -0.171449 -0.141082 -0.113929 -0.018528 0.131373 -0.072412 -0.511295 0.082872 -0.065222
领 -0.603719 -0.127467 0.062309 -0.227883 0.130887 -0.739076 -0.127308 -0.237271 0.235542 0.663401 0.548106 -0.154474 0.003150 0.388438 -0.057869 0.028614 0.167018 0.151065 0.034983 0.264711 0.256564 0.089394 0.008785 -0.024179 0.414759 0.216645 0.194259 0.044036 -0.213491 0.019517 0.027887 -0.304978 0.214177 0.868296 0.035246 -0.183090 -0.153776 -0.261351 -0.409441 0.855338 -0.236581 -0.776998 -0.517178 -0.322784 0.328437 -0.020319 0.383041 -0.371365 0.219132 -0.402234
界 -0.112654 0.329160 0.019335 -0.207774 0.684162 0.056123 -0.206211 -0.259050 0.427531 -0.349048 0.991506 -0.090288 -0.046207 0.244024 0.675047 0.077491 0.061295 -0.329979 0.072651 -0.321781 -1.063041 -0.098261 -0.065654 -0.245804 0.212279 0.365215 -0.570051 -0.108361 -0.073808 0.038716 0.638263 0.101885 -0.466811 0.578063 -0.015124 -0.070804 -0.159176 0.192587 -0.139432 0.839434 -0.224825 -0.438959 0.114621 -0.020548 0.010906 -0.164741 0.445094 -0.524268 -0.124418 -0.658067
海 -0.097008 0.367965 0.004620 -0.302190 0.132289 -0.651536 0.176862 -0.514066 0.527051 -0.093721 0.326422 -0.230654 0.214357 -0.531440 0.239622 -0.364774 0.129840 -0.242819 0.063067 -0.282948 -0.198009 0.000598 -0.027857 -0.426995 -0.484459 0.130079 -0.153695 -0.401682 0.196593 0.190142 0.403701 0.241392 -0.164119 0.208698 0.520210 -0.123291 -0.275712 -0.016779 0.014916 0.317373 -0.830777 -0.466479 -0.178036 -0.239532 -0.505853 0.746880 0.228910 -0.130491 0.147592 -0.314339
点 0.074714 -0.084620 -0.020906 0.286099 0.191422 0.107348 0.167121 0.309980 0.248734 0.514964 0.353304 -0.451340 0.170124 0.406265 0.494565 -0.019897 0.129043 -0.117123 -0.236328 0.586234 -0.461928 0.096421 0.554855 -0.296632 0.206849 -0.053875 -0.383223 -0.094126 0.145083 0.470135 -0.224675 0.472252 -0.268903 -0.481515 0.456584 -0.435890 0.165871 -0.499880 -0.346807 0.010661 0.418485 -0.417390 -0.574901 -0.247778 -0.210007 -0.128553 0.037300 -0.208735 0.131817 -0.451894
基 -0.081728 -0.048540 -0.176857 -0.122886 -0.304246 -0.205391 0.523579 -0.026055 -0.090889 0.091951 0.165988 -0.864751 -0.377044 0.343814 -0.463558 -0.208106 0.123893 -0.359062 0.155409 0.573376 0.104567 -0.275396 -0.300112 -0.479262 0.077728 0.883858 -0.410359 -0.063335 0.155036 0.397521 0.374776 -0.002996 0.033593 0.209580 0.502552 -0.434654 -0.067591 -0.012025 -0.060995 0.883301 0.042166 0.304303 -0.338776 -0.769797 -0.048117 -0.235796 0.508489 0.083025 0.180539 -0.287007
性 0.150119 -0.055913 0.171556 -0.195410 0.022120 -0.166226 0.349718 0.135300 0.035867 0.096157 0.213768 -0.296085 -0.421840 0.792803 0.124466 -0.249096 0.145891 -0.291647 0.259531 0.245615 -0.222086 0.039757 0.346903 -0.355535 0.131650 1.186071 0.084051 0.187373 0.057929 0.152114 0.223399 -0.144718 -0.662893 0.212019 -0.003714 -0.039237 -0.118182 0.006125 0.164917 -0.124485 0.000839 -0.536684 0.043449 -0.372522 0.139373 -0.192522 -0.083209 -0.424986 -0.345748 0.069745
增 0.515779 0.337118 -0.051203 -0.166578 0.056276 0.190418 0.503520 0.043590 0.344756 0.673250 -0.245912 -0.029513 -0.113391 -0.577035 0.732588 0.459062 -0.088320 0.342798 -0.063866 0.483874 -0.210412 -1.176701 0.216275 -0.601907 0.528134 0.307117 -0.221168 -0.377214 0.152545 0.855082 0.603469 0.492028 -0.149839 -0.241710 -0.073083 -0.287396 0.314856 -0.339346 -0.124708 0.280973 0.074600 -0.750704 0.287480 -0.426321 0.230017 -0.522130 0.359662 -0.018393 -0.091505 -0.160245
三 0.122239 0.355614 -0.080911 -0.466164 0.354552 -0.150442 0.389532 -0.068833 0.036934 -0.039368 0.265385 -0.271427 0.022742 0.093371 -0.099561 -0.296820 -0.009413 0.373389 0.056925 0.078811 -0.067961 -0.386791 -0.371238 -0.129537 0.222901 -0.065730 -0.221539 0.334504 -0.184945 0.121787 0.024676 -0.071806 -0.279839 0.059724 0.349450 -0.549720 -0.200516 -0.039141 -0.169021 0.153660 -0.186856 -0.568977 -0.945037 -0.427640 -0.596133 -0.296232 0.100877 0.334808 0.021354 0.114845
安 -0.440155 0.092965 0.085936 -0.650933 -0.051872 -0.355841 0.364994 -0.315681 0.320229 0.361930 0.277096 -0.441642 0.350416 -0.111050 0.077184 -0.340880 -0.598330 0.237001 0.131835 0.122665 -0.324393 0.040982 0.174239 -0.268308 -0.241859 0.557674 0.082401 -0.214050 0.121660 -0.312542 1.203664 -0.413637 0.368467 -0.005173 0.140910 0.284875 0.030864 -0.432114 -0.405346 -0.139666 -0.226066 -0.164128 0.080859 -0.068208 -0.453681 0.318674 -0.206108 0.037736 0.401412 -0.174552
